svm_type c_svc
kernel_type rbf
gamma 1
nr_class 2
total_sv 693
rho -7.00442
label 0 1
probA -0.860857
probB -0.0444069
nr_sv 329 364
SV
128 1:0.536845 2:0.536143 3:0.550859 4:0.637395 5:0.384897 6:0.318764 7:0.759179 8:0.337342 9:0.592494 10:0.652043 11:0.511362 12:0.594635 13:0.254042 14:0.693634 15:0.532931 16:0.696609 17:0.695062 18:0.703168 19:0.248015 20:0.336425 21:0.290437 22:0.718642 23:0.347975 24:0.647523 25:0.708906 26:0.68313 27:0.60422 28:0.497911 29:0.388493 30:0.553211 31:0.357747 
128 1:0.343681 2:0.517084 3:0.546351 4:0.601254 5:0.430881 6:0.385364 7:0.687837 8:0.430086 9:0.623523 10:0.621422 11:0.51475 12:0.542185 13:0.300278 14:0.644994 15:0.528914 16:0.651378 17:0.678932 18:0.599222 19:0.584606 20:0.41087 21:0.325854 22:0.694715 23:0.350091 24:0.482237 25:0.553234 26:0.553399 27:0.512782 28:0.497772 29:0.465127 30:0.571517 31:0.509763 
20.64472195710779 1:0.642208 2:0.571019 3:0.542829 4:0.646804 5:0.314829 6:0.271257 7:0.83835 8:0.240522 9:0.778369 10:0.842715 11:0.533381 12:0.666567 13:0.153537 14:0.816197 15:0.665806 16:0.839668 17:0.811516 18:0.768205 19:0.32193 20:0.222367 21:0.148891 22:0.819134 23:0.405299 24:0.748287 25:0.803722 26:0.738294 27:0.729203 28:0.568384 29:0.311858 30:0.652704 31:0.244109 
83.79224695299806 1:0.459705 2:0.552214 3:0.569879 4:0.567204 5:0.546933 6:0.510586 7:0.535584 8:0.31594 9:0.548463 10:0.519846 11:0.473395 12:0.602128 13:0.360931 14:0.603949 15:0.554025 16:0.546524 17:0.472259 18:0.484158 19:0.353085 20:0.388068 21:0.391496 22:0.536694 23:0.651823 24:0.677792 25:0.499114 26:0.51764 27:0.436224 28:0.383008 29:0.403602 30:0.513186 31:0.460163 
128 1:0.335528 2:0.544919 3:0.553959 4:0.568996 5:0.542868 6:0.498037 7:0.566035 8:0.380147 9:0.520686 10:0.545642 11:0.466055 12:0.554173 13:0.390794 14:0.536264 15:0.491606 16:0.48729 17:0.444156 18:0.635353 19:0.350031 20:0.506184 21:0.396741 22:0.521464 23:0.495869 24:0.594153 25:0.496012 26:0.573765 27:0.484918 28:0.362813 29:0.480358 30:0.476678 31:0.488068 
128 1:0.465036 2:0.613044 3:0.529022 4:0.584229 5:0.470543 6:0.421846 7:0.666957 8:0.358744 9:0.638002 10:0.645867 11:0.5012 12:0.651581 13:0.366389 14:0.599762 15:0.568231 16:0.62181 17:0.576778 18:0.706504 19:0.292608 20:0.429227 21:0.35913 22:0.585106 23:0.525589 24:0.669428 25:0.640673 26:0.677517 27:0.689977 28:0.41142 29:0.418712 30:0.493019 31:0.379143 
128 1:0.435246 2:0.356615 3:0.54142 4:0.577807 5:0.530827 6:0.490866 7:0.542544 8:0.393396 9:0.568853 10:0.48588 11:0.481581 12:0.513712 13:0.324272 14:0.597792 15:0.455158 16:0.572823 17:0.574604 18:0.426904 19:0.368357 20:0.387295 21:0.412489 22:0.593524 23:0.493653 24:0.634778 25:0.487594 26:0.432809 27:0.411606 28:0.426323 29:0.418712 30:0.51298 31:0.540809 
13.15833603054068 1:0.388523 2:0.533529 3:0.562412 4:0.610215 5:0.446159 6:0.410193 7:0.651296 8:0.374032 9:0.515366 10:0.651849 11:0.476358 12:0.518208 13:0.272475 14:0.690104 15:0.503085 16:0.660015 17:0.677026 18:0.467482 19:0.376909 20:0.364831 21:0.263918 22:0.733103 23:0.380919 24:0.51848 25:0.582632 26:0.525978 27:0.404842 28:0.504596 29:0.420525 30:0.595201 31:0.524052 
45.89171134874531 1:0.346817 2:0.700574 3:0.551 4:0.577061 5:0.530451 6:0.474732 7:0.658257 8:0.409702 9:0.473404 10:0.563461 11:0.463232 12:0.603626 13:0.417259 14:0.562615 15:0.47783 16:0.517053 17:0.469514 18:0.695386 19:0.282834 20:0.473092 21:0.454381 22:0.537287 23:0.469575 24:0.589772 25:0.571334 26:0.668698 27:0.583254 28:0.373398 29:0.456183 30:0.447926 31:0.425376 
128 1:0.47413 2:0.45204 3:0.543252 4:0.597222 5:0.492143 6:0.441566 7:0.596485 8:0.389319 9:0.710697 10:0.725121 11:0.489908 12:0.557171 13:0.283699 14:0.654681 15:0.544267 16:0.652696 17:0.659409 18:0.564758 19:0.521075 20:0.383913 21:0.280014 22:0.692794 23:0.37427 24:0.573044 25:0.552282 26:0.505613 27:0.466523 28:0.480919 29:0.432854 30:0.551349 31:0.541483 
128 1:0.478833 2:0.225727 3:0.486616 4:0.57736 5:0.409733 6:0.399437 7:0.610406 8:0.281288 9:0.63682 10:0.591894 11:0.484686 12:0.479245 13:0.189167 14:0.7598 15:0.481705 16:0.75638 17:0.817159 18:0.348527 19:0.432499 20:0.223478 21:0.26052 22:0.796186 23:0.363792 24:0.680978 25:0.552946 26:0.427036 27:0.414717 28:0.572005 29:0.358637 30:0.643293 31:0.56026 
75.37256101032303 1:0.605205 2:0.608202 3:0.568752 4:0.598566 5:0.538654 6:0.50969 7:0.646946 8:0.264982 9:0.738475 10:0.728659 11:0.482287 12:0.678555 13:0.284523 14:0.744572 15:0.624193 16:0.689827 17:0.605262 18:0.818788 19:0.342089 20:0.290628 21:0.246431 22:0.688044 23:0.528108 24:0.782938 25:0.590164 26:0.676074 27:0.598945 28:0.479526 29:0.392723 30:0.569242 31:0.406 
128 1:0.50047 2:0.529221 3:0.547619 4:0.587814 5:0.515323 6:0.490866 7:0.532974 8:0.305748 9:0.657506 10:0.65037 11:0.483416 12:0.578151 13:0.260941 14:0.665517 15:0.557756 16:0.618444 17:0.583832 18:0.536965 19:0.447159 20:0.371836 21:0.262406 22:0.652381 23:0.528007 24:0.663056 25:0.530128 26:0.482681 27:0.489517 28:0.45571 29:0.411338 30:0.596856 31:0.534451 
128 1:0.544058 2:0.633222 3:0.537335 4:0.597969 5:0.472575 6:0.44067 7:0.616496 8:0.276192 9:0.699173 10:0.672499 11:0.501059 12:0.648584 13:0.25085 14:0.736855 15:0.616588 16:0.725787 17:0.672984 18:0.629239 19:0.435553 20:0.291353 21:0.249883 22:0.710119 23:0.50131 24:0.719213 25:0.601905 26:0.588358 27:0.575003 28:0.497354 29:0.365768 30:0.611542 31:0.439066 
128 1:0.510505 2:0.429648 3:0.47929 4:0.581691 5:0.413496 6:0.380613 7:0.613016 8:0.313901 9:0.680851 10:0.733741 11:0.489908 12:0.534692 13:0.263928 14:0.666297 15:0.527192 16:0.714857 17:0.74898 18:0.481379 19:0.576054 20:0.349855 21:0.312969 22:0.706731 23:0.399355 24:0.637167 25:0.589499 26:0.501603 27:0.521169 28:0.503064 29:0.374713 30:0.581342 31:0.482457 
53.99344833296433 1:0.37598 2:0.288597 3:0.523387 4:0.537485 5:0.627536 6:0.603808 7:0.495563 8:0.432124 9:0.694149 10:0.518366 11:0.436839 12:0.501723 13:0.410668 14:0.524032 15:0.445975 16:0.530812 17:0.552412 18:0.466926 19:0.60843 20:0.441739 21:0.485329 22:0.519438 23:0.58372 24:0.59734 25:0.405848 26:0.394163 27:0.347356 28:0.384819 29:0.455216 30:0.438308 31:0.644872 
128 1:0.480088 2:0.500893 3:0.499437 4:0.564964 5:0.412141 6:0.38151 7:0.632156 8:0.329189 9:0.589835 10:0.666195 11:0.50981 12:0.561666 13:0.275564 14:0.658868 15:0.539102 16:0.701976 17:0.7102 18:0.516954 19:0.464875 20:0.373865 21:0.274596 22:0.68724 23:0.396232 24:0.6296 25:0.588613 26:0.505292 27:0.618558 28:0.484958 29:0.392481 30:0.59034 31:0.449615 
115.4242481114629 1:0.519599 2:0.563457 3:0.553254 4:0.590651 5:0.496282 6:0.449633 7:0.621716 8:0.306767 9:0.648345 10:0.554841 11:0.482004 12:0.641091 13:0.326434 14:0.671962 15:0.604104 16:0.695438 17:0.63367 18:0.637576 19:0.438607 20:0.334299 21:0.326857 22:0.63268 23:0.539996 24:0.672216 25:0.575321 26:0.596857 27:0.440146 28:0.448329 29:0.38946 30:0.533768 31:0.43772 
128 1:0.483223 2:0.485809 3:0.546774 4:0.56362 5:0.554609 6:0.514172 7:0.573865 8:0.395434 9:0.656915 10:0.596397 11:0.475653 12:0.582647 13:0.356709 14:0.595165 15:0.547281 16:0.623469 17:0.591001 18:0.656476 19:0.480147 20:0.445845 21:0.319619 22:0.592616 23:0.476325 24:0.591763 25:0.506646 26:0.499679 27:0.494657 28:0.416713 29:0.462589 30:0.505326 31:0.523678 
128 1:0.502038 2:0.461536 3:0.545647 4:0.557646 5:0.526085 6:0.481006 7:0.615626 8:0.348553 9:0.678191 10:0.618205 11:0.490191 12:0.588641 13:0.354958 14:0.585601 15:0.547711 16:0.569407 17:0.531706 18:0.67871 19:0.432499 20:0.424783 21:0.348774 22:0.563939 23:0.525086 24:0.682173 25:0.521046 26:0.572482 27:0.600027 28:0.399443 29:0.432008 30:0.489296 31:0.430388 
128 1:0.481342 2:0.42446 3:0.556495 4:0.587664 5:0.53617 6:0.472939 7:0.548634 8:0.409702 9:0.607565 10:0.629656 11:0.476641 12:0.555672 13:0.348162 14:0.577844 15:0.500359 16:0.53374 17:0.510696 18:0.512507 19:0.376909 20:0.452464 21:0.355825 22:0.584407 23:0.451038 24:0.558308 25:0.521267 26:0.498557 27:0.41891 28:0.405153 29:0.464886 30:0.483607 31:0.547393 
128 1:0.475071 2:0.547866 3:0.548605 4:0.569146 5:0.566049 6:0.538373 7:0.505133 8:0.364859 9:0.631797 10:0.606497 11:0.466478 12:0.570658 13:0.339821 14:0.58831 15:0.531497 16:0.578141 17:0.544366 18:0.553085 19:0.484423 20:0.440725 21:0.356387 22:0.571588 23:0.5676 24:0.631591 25:0.488259 26:0.462315 27:0.471121 28:0.404596 29:0.437205 30:0.528183 31:0.554799 
128 1:0.609282 2:0.650707 3:0.510848 4:0.597819 5:0.392573 6:0.347448 7:0.771359 8:0.24256 9:0.737293 10:0.69971 11:0.520536 12:0.669564 13:0.244465 14:0.734721 15:0.63022 16:0.754916 17:0.709857 18:0.795998 19:0.396457 20:0.282415 21:0.260078 22:0.704635 23:0.476728 24:0.774176 25:0.706469 26:0.720173 27:0.79183 28:0.496657 29:0.334824 30:0.588996 31:0.256827 
128 1:0.622766 2:0.648933 3:0.530713 4:0.605137 5:0.400777 6:0.356412 7:0.767879 8:0.237464 9:0.713061 10:0.690061 11:0.520395 12:0.677057 13:0.237566 14:0.746131 15:0.626345 16:0.727251 17:0.670124 18:0.782101 19:0.280391 20:0.27256 21:0.245896 22:0.705683 23:0.505843 24:0.792895 25:0.71245 26:0.738775 27:0.791154 28:0.49429 29:0.337846 30:0.592615 31:0.262288 
128 1:0.47852 2:0.504014 3:0.510144 4:0.584378 5:0.489208 6:0.429913 7:0.647816 8:0.317978 9:0.648936 10:0.528015 11:0.477206 12:0.587142 13:0.355782 14:0.591019 15:0.514134 16:0.58102 17:0.558475 18:0.599222 19:0.49664 20:0.391111 21:0.425053 22:0.5631 23:0.557123 24:0.646328 25:0.578866 26:0.604875 27:0.507913 28:0.40376 29:0.39224 30:0.478333 31:0.411835 
128 1:0.436187 2:0.454188 3:0.499295 4:0.550179 5:0.527591 6:0.481006 7:0.535584 8:0.375051 9:0.61052 10:0.52139 11:0.480875 12:0.561666 13:0.352693 14:0.572466 15:0.482422 16:0.575994 17:0.568313 18:0.484714 19:0.558949 20:0.423478 21:0.403511 22:0.568864 23:0.477433 24:0.601721 25:0.491582 26:0.453656 27:0.480996 28:0.407799 29:0.428261 30:0.496639 31:0.559138 
55.97651645289297 1:0.524616 2:0.715297 3:0.546915 4:0.57034 5:0.55649 6:0.518653 7:0.514703 8:0.310844 9:0.560284 10:0.542811 11:0.486803 12:0.633598 13:0.34188 14:0.636662 15:0.548572 16:0.587265 17:0.518894 18:0.563646 19:0.402566 20:0.384734 21:0.349643 22:0.590939 23:0.587246 24:0.695316 25:0.504431 26:0.536562 27:0.555796 28:0.414345 29:0.405415 30:0.547213 31:0.507219 
128 1:0.571025 2:0.437823 3:0.529586 4:0.563022 5:0.46821 6:0.431706 7:0.685227 8:0.316959 9:0.694444 10:0.713413 11:0.519831 12:0.603626 13:0.256822 14:0.773222 15:0.577271 16:0.739839 17:0.720419 18:0.579767 19:0.39157 20:0.24029 21:0.214868 22:0.769534 23:0.365404 24:0.705672 25:0.560479 26:0.555003 27:0.64791 28:0.539276 29:0.375438 30:0.599545 31:0.417745 
128 1:0.521166 2:0.465231 3:0.526768 4:0.561081 5:0.515624 6:0.455012 7:0.600835 8:0.410722 9:0.563239 10:0.67771 11:0.494284 12:0.561666 13:0.390691 14:0.569757 15:0.467069 16:0.535448 17:0.528732 18:0.522512 19:0.329261 20:0.443816 21:0.408408 22:0.580251 23:0.440963 24:0.621635 25:0.532122 26:0.550834 27:0.613012 28:0.407242 29:0.438898 30:0.458992 31:0.46323 
50.15207443958948 1:0.409219 2:0.551654 3:0.530149 4:0.616637 5:0.375489 6:0.31249 7:0.688707 8:0.296576 9:0.584811 10:0.576005 11:0.513197 12:0.579649 13:0.242817 14:0.697944 15:0.566796 16:0.690217 17:0.681602 18:0.464147 19:0.556506 20:0.318454 21:0.259423 22:0.714415 23:0.407415 24:0.543572 25:0.634027 26:0.558371 27:0.421615 28:0.495125 29:0.363713 30:0.603785 31:0.42373 
128 1:0.329884 2:0.49976 3:0.553254 4:0.562575 5:0.477843 6:0.443359 7:0.669567 8:0.435181 9:0.598404 10:0.702219 11:0.48765 12:0.557171 13:0.319741 14:0.681731 15:0.544841 16:0.684655 17:0.675157 18:0.538633 19:0.425168 20:0.368261 21:0.287173 22:0.707779 23:0.326012 24:0.54397 25:0.534116 26:0.536241 27:0.502367 28:0.490947 29:0.433096 30:0.556521 31:0.487394 
128 1:0.302916 2:0.459189 3:0.566216 4:0.555108 5:0.557394 6:0.532995 7:0.535584 8:0.392377 9:0.547872 10:0.604053 11:0.459704 12:0.518208 13:0.383071 14:0.516151 15:0.494045 16:0.462552 17:0.43081 18:0.53363 19:0.447159 20:0.531642 21:0.358675 22:0.509693 23:0.56347 24:0.551537 25:0.455693 26:0.481077 27:0.429325 28:0.355014 29:0.484467 30:0.497052 31:0.5346 
128 1:0.480088 2:0.514911 3:0.537053 4:0.588859 5:0.391143 6:0.356412 7:0.661737 8:0.334285 9:0.517435 10:0.609199 11:0.508539 12:0.587142 13:0.25744 14:0.684193 15:0.547855 16:0.729105 17:0.717826 18:0.541968 19:0.304826 20:0.341642 21:0.280777 22:0.696497 23:0.386661 24:0.647124 25:0.638015 26:0.540731 27:0.560665 28:0.491086 29:0.383779 30:0.590547 31:0.428518 
128 1:0.370022 2:0.636036 3:0.552691 4:0.536888 5:0.551975 6:0.530306 7:0.601705 8:0.41276 9:0.498522 10:0.573303 11:0.471278 12:0.597632 13:0.387293 14:0.664327 15:0.534654 16:0.667431 17:0.627264 18:0.542524 19:0.36347 20:0.373092 21:0.342713 22:0.648713 23:0.448721 24:0.590569 25:0.485379 26:0.524535 27:0.522522 28:0.456128 29:0.437689 30:0.533664 31:0.520236 
123.1494635252211 1:0.334588 2:0.339384 3:0.477036 4:0.522103 5:0.511108 6:0.485488 7:0.551244 8:0.374032 9:0.505319 10:0.430235 11:0.44813 12:0.43129 13:0.35259 14:0.594672 15:0.421151 16:0.61698 17:0.670963 18:0.288494 19:0.630422 20:0.368164 21:0.464884 22:0.605086 23:0.435019 24:0.544368 25:0.420027 26:0.335151 27:0.343974 28:0.447075 29:0.408316 30:0.520116 31:0.563926 
128 1:0.392913 2:0.598106 3:0.571992 4:0.528823 5:0.574177 6:0.563471 7:0.608665 8:0.476967 9:0.47695 10:0.679318 11:0.446719 12:0.563165 13:0.450417 14:0.610064 15:0.53121 16:0.646646 17:0.611706 18:0.550306 19:0.219914 20:0.46087 21:0.361806 22:0.608229 23:0.494358 24:0.547953 25:0.48693 26:0.533034 27:0.533478 28:0.42688 29:0.479028 30:0.490537 31:0.500486 
73.4965047871178 1:0.394481 2:0.512443 3:0.579741 4:0.509409 5:0.660576 6:0.650419 7:0.574735 8:0.505504 9:0.619681 10:0.658797 11:0.444319 12:0.557171 13:0.476985 14:0.612445 15:0.553738 16:0.641815 17:0.606177 18:0.511951 19:0.411729 20:0.42715 21:0.376095 22:0.595515 23:0.563369 24:0.539589 25:0.392335 26:0.454618 27:0.46801 28:0.423677 29:0.475765 30:0.470783 31:0.542156 
128 1:0.543744 2:0.455242 3:0.525641 4:0.562724 5:0.482961 6:0.437084 7:0.646076 8:0.35161 9:0.685579 10:0.702219 11:0.510515 12:0.581148 13:0.301823 14:0.673644 15:0.551155 16:0.672896 17:0.664099 18:0.607004 19:0.489921 20:0.346618 21:0.277686 22:0.686053 23:0.389583 24:0.655887 25:0.541648 26:0.534958 27:0.621669 28:0.481337 29:0.405415 30:0.549178 31:0.442433 
128 1:0.544998 2:0.380835 3:0.516202 4:0.625448 5:0.388283 6:0.337588 7:0.733078 8:0.287403 9:0.662825 10:0.647346 11:0.519548 12:0.602128 13:0.252188 14:0.718426 15:0.536806 16:0.731008 17:0.738799 18:0.662034 19:0.281002 20:0.28256 21:0.277539 22:0.738133 23:0.38374 24:0.716027 25:0.692069 26:0.665972 27:0.590423 28:0.520891 29:0.370603 30:0.563243 31:0.373532 
128 1:0.474757 2:0.552027 3:0.5 4:0.563471 5:0.518409 6:0.484592 7:0.593005 8:0.378109 9:0.625 10:0.608813 11:0.466055 12:0.585643 13:0.397796 14:0.600952 15:0.5259 16:0.680166 17:0.676644 18:0.579767 19:0.469151 20:0.40686 21:0.429053 22:0.602047 23:0.516724 24:0.633185 25:0.55206 26:0.551155 27:0.527661 28:0.435794 29:0.413151 30:0.486917 31:0.479539 
128 1:0.505801 2:0.38633 3:0.5286 4:0.6023 5:0.460308 6:0.43081 7:0.653036 8:0.289441 9:0.772163 10:0.654294 11:0.484404 12:0.588641 13:0.209865 14:0.752986 15:0.570527 16:0.718078 17:0.70021 18:0.638688 19:0.333537 20:0.250628 21:0.269819 22:0.736386 23:0.424239 24:0.751474 25:0.607444 26:0.595895 27:0.524144 28:0.522145 29:0.376768 30:0.595822 31:0.460388 
128 1:0.498902 2:0.507348 3:0.50155 4:0.582288 5:0.460007 6:0.416468 7:0.626936 8:0.280269 9:0.734929 10:0.689096 11:0.494848 12:0.621609 13:0.303058 14:0.639987 15:0.570383 16:0.626348 17:0.595386 18:0.603669 19:0.514966 20:0.353285 21:0.353336 22:0.614936 23:0.53919 24:0.714832 25:0.60257 26:0.609204 27:0.592182 28:0.438579 29:0.370241 30:0.532216 31:0.405327 
30.11325125777253 1:0.348071 2:0.38969 3:0.556495 4:0.545251 5:0.579294 6:0.537477 7:0.521663 8:0.479005 9:0.513593 10:0.592345 11:0.453917 12:0.491233 13:0.418289 14:0.482904 15:0.410963 16:0.451281 17:0.461163 18:0.470817 19:0.458155 20:0.534879 21:0.457833 22:0.504558 23:0.468164 24:0.525251 25:0.432654 26:0.432649 27:0.410659 28:0.356685 29:0.491962 30:0.431792 31:0.612478 
128 1:0.476325 2:0.468605 3:0.576219 4:0.527479 5:0.648835 6:0.62801 7:0.536454 8:0.430086 9:0.61318 10:0.580959 11:0.460268 12:0.557171 13:0.438884 14:0.564093 15:0.521596 16:0.55272 17:0.516721 18:0.595331 19:0.400733 20:0.466039 21:0.35632 22:0.543854 23:0.600746 24:0.604907 25:0.407178 26:0.462636 27:0.513188 28:0.385933 29:0.48483 30:0.469231 31:0.549263 
128 1:0.340546 2:0.61279 3:0.573542 4:0.535693 5:0.581929 6:0.557197 7:0.549504 8:0.447411 9:0.437057 10:0.480283 11:0.44813 12:0.570658 13:0.431984 14:0.585355 15:0.523317 16:0.619956 17:0.569647 18:0.527515 19:0.36347 20:0.464589 21:0.377915 22:0.567641 23:0.502922 24:0.518878 25:0.44949 26:0.475786 27:0.385635 28:0.399722 29:0.479753 30:0.49426 31:0.567517 
39.37910726695626 1:0.505801 2:0.643172 3:0.499014 4:0.589904 5:0.387004 6:0.353723 7:0.703497 8:0.332246 9:0.556738 10:0.669604 11:0.486944 12:0.593137 13:0.295953 14:0.664655 15:0.568948 16:0.777556 17:0.768808 18:0.616454 19:0.451436 20:0.388551 21:0.308219 22:0.68008 23:0.421721 24:0.590967 25:0.677226 26:0.576491 27:0.591911 28:0.481058 29:0.378944 30:0.577929 31:0.367921 
85.87789199653722 1:0.724679 2:0.455708 3:0.558045 4:0.647252 5:0.376919 6:0.310697 7:0.788759 8:0.27925 9:0.842199 10:0.978643 11:0.519266 12:0.675558 13:0.190815 14:0.755941 15:0.621897 16:0.704123 17:0.653575 18:0.863813 19:0.205254 20:0.277536 21:0.230161 22:0.744734 23:0.360165 24:0.823164 25:0.771821 26:0.79939 27:0.744623 28:0.512674 29:0.352955 30:0.5559 31:0.26528 
128 1:0.528379 2:0.554294 3:0.505917 4:0.551673 5:0.503883 6:0.46039 7:0.576475 8:0.384223 9:0.594858 10:0.614603 11:0.482428 12:0.563165 13:0.382968 14:0.565078 15:0.512986 16:0.641913 17:0.642326 18:0.589216 19:0.511301 20:0.45372 21:0.407016 22:0.580321 23:0.472396 24:0.628007 25:0.525033 26:0.509942 27:0.586501 28:0.416295 29:0.42403 30:0.489296 31:0.476547 
128 1:0.528379 2:0.554294 3:0.505917 4:0.551673 5:0.503883 6:0.46039 7:0.576475 8:0.384223 9:0.594858 10:0.614603 11:0.482428 12:0.563165 13:0.382968 14:0.565078 15:0.512986 16:0.641913 17:0.642326 18:0.589216 19:0.511301 20:0.45372 21:0.407016 22:0.580321 23:0.472396 24:0.628007 25:0.525033 26:0.509942 27:0.586501 28:0.416295 29:0.42403 30:0.489296 31:0.476547 
128 1:0.412668 2:0.522033 3:0.560299 4:0.608423 5:0.492745 6:0.442463 7:0.701757 8:0.367917 9:0.582151 10:0.576648 11:0.47043 12:0.576652 13:0.347853 14:0.649427 15:0.521883 16:0.647817 17:0.632526 18:0.670928 19:0.364692 20:0.36628 21:0.368937 22:0.645674 23:0.449627 24:0.595746 25:0.598804 26:0.631655 27:0.448262 28:0.454039 29:0.420283 30:0.502741 31:0.419391 
128 1:0.444967 2:0.558149 3:0.581009 4:0.549432 5:0.603905 6:0.572435 7:0.554724 8:0.438239 9:0.540189 10:0.59659 11:0.457022 12:0.566162 13:0.431984 14:0.60046 15:0.53164 16:0.592535 17:0.542192 18:0.49861 19:0.329261 20:0.425942 21:0.408475 22:0.569912 23:0.569111 24:0.593357 25:0.44794 26:0.496793 27:0.43717 28:0.403343 29:0.447238 30:0.47916 31:0.498317 
128 1:0.494826 2:0.423473 3:0.581572 4:0.554659 5:0.623999 6:0.585881 7:0.564294 8:0.452507 9:0.646572 10:0.603538 11:0.467608 12:0.564663 13:0.426321 14:0.56906 15:0.512843 16:0.5616 17:0.539638 18:0.583658 19:0.373855 20:0.445604 21:0.379173 22:0.562716 23:0.566996 24:0.596941 25:0.456136 26:0.492302 27:0.482348 28:0.398607 29:0.472864 30:0.449788 31:0.54657 
75.35028539960832 1:0.301662 2:0.390851 3:0.561144 4:0.619474 5:0.409432 6:0.365375 7:0.734818 8:0.35161 9:0.664598 10:0.669604 11:0.493719 12:0.576652 13:0.23839 14:0.688914 15:0.55546 16:0.689583 17:0.681449 18:0.740967 19:0.457544 20:0.348454 21:0.250151 22:0.715708 23:0.283599 24:0.594552 25:0.636907 26:0.630853 27:0.430137 28:0.49624 29:0.424755 30:0.567587 31:0.442807 
128 1:0.574161 2:0.366071 3:0.557058 4:0.645908 5:0.374586 6:0.335795 7:0.722638 8:0.272116 9:0.736998 10:0.736764 11:0.508963 12:0.579649 13:0.139327 14:0.821984 15:0.592624 16:0.792584 17:0.795882 18:0.669261 19:0.211973 20:0.220676 21:0.132394 22:0.854972 23:0.305259 24:0.718018 25:0.691405 26:0.645766 27:0.521169 28:0.591365 29:0.378218 30:0.657048 31:0.43974 
128 1:0.399498 2:0.646266 3:0.543956 4:0.57049 5:0.558598 6:0.50969 7:0.567775 8:0.418875 9:0.563534 10:0.557414 11:0.468596 12:0.612618 13:0.447946 14:0.499692 15:0.511264 16:0.522225 17:0.474585 18:0.653696 19:0.368357 20:0.525217 21:0.474063 22:0.477628 23:0.596313 24:0.610881 25:0.541205 26:0.601347 27:0.557014 28:0.339415 29:0.458117 30:0.428793 31:0.468318 
128 1:0.336469 2:0.438557 3:0.509721 4:0.548686 5:0.489584 6:0.447841 7:0.604315 8:0.432124 9:0.477541 10:0.469347 11:0.48144 12:0.506219 13:0.393986 14:0.564914 15:0.441096 16:0.623616 17:0.653575 18:0.470817 19:0.453268 20:0.436328 21:0.439048 22:0.598798 23:0.393512 24:0.55313 25:0.493132 26:0.478191 27:0.464223 28:0.430641 29:0.438777 30:0.484538 31:0.522032 
128 1:0.469113 2:0.441171 3:0.538462 4:0.575866 5:0.507195 6:0.472042 7:0.642596 8:0.343457 9:0.720154 10:0.665487 11:0.48398 12:0.557171 13:0.304088 14:0.66757 15:0.562491 16:0.66182 17:0.639657 18:0.686492 19:0.44777 20:0.367343 21:0.291816 22:0.666282 23:0.428974 24:0.668233 25:0.524812 26:0.574727 27:0.538077 28:0.468106 29:0.424393 30:0.548764 31:0.433231 
128 1:0.265287 2:0.402774 3:0.519442 4:0.571983 5:0.544675 6:0.485488 7:0.579955 8:0.459641 9:0.611998 10:0.557928 11:0.465208 12:0.507718 13:0.384924 14:0.543858 15:0.443392 16:0.555257 17:0.578837 18:0.583658 19:0.621258 20:0.469517 21:0.447731 22:0.581718 23:0.323695 24:0.502947 25:0.470093 26:0.488294 27:0.368186 28:0.41156 29:0.479028 30:0.453408 31:0.57642 
128 1:0.583882 2:0.619485 3:0.530713 4:0.613799 5:0.42042 6:0.359997 7:0.680007 8:0.298614 9:0.691489 10:0.710196 11:0.518702 12:0.666567 13:0.264751 14:0.740139 15:0.613288 16:0.730812 17:0.679809 18:0.602001 19:0.365302 20:0.287488 21:0.259797 22:0.728562 23:0.445698 24:0.690537 25:0.661276 26:0.665811 27:0.595699 28:0.504596 29:0.354769 30:0.582066 31:0.384155 
128 1:0.293195 2:0.628954 3:0.502254 4:0.566607 5:0.491541 6:0.444255 7:0.566035 8:0.413779 9:0.546986 10:0.609649 11:0.47283 12:0.540686 13:0.383689 14:0.490252 15:0.468934 16:0.519151 17:0.530715 18:0.469149 19:0.723885 20:0.532657 21:0.452749 22:0.514269 23:0.506448 24:0.476263 25:0.53611 26:0.460872 27:0.484648 28:0.364206 29:0.43225 30:0.484952 31:0.524501 
1.551932112487822 1:0.301976 2:0.529221 3:0.547619 4:0.598716 5:0.432537 6:0.389577 7:0.634766 8:0.370974 9:0.476064 10:0.493213 11:0.489767 12:0.5257 13:0.283802 14:0.661782 15:0.515999 16:0.713296 17:0.715615 18:0.585325 19:0.488699 20:0.38343 21:0.303576 22:0.699291 23:0.282793 24:0.538394 25:0.54342 26:0.510904 27:0.355066 28:0.488022 29:0.429953 30:0.584549 31:0.498691 
128 1:0.43117 2:0.590651 3:0.512398 4:0.564367 5:0.480628 6:0.446944 7:0.610406 8:0.369955 9:0.601064 10:0.65751 11:0.474383 12:0.582647 13:0.331892 14:0.646677 15:0.538671 16:0.687631 17:0.675043 18:0.59144 19:0.469151 20:0.387391 21:0.356079 22:0.65493 23:0.404896 24:0.620838 25:0.557377 26:0.551635 27:0.54254 28:0.46337 29:0.414481 30:0.539663 31:0.48717 
128 1:0.335215 2:0.578354 3:0.552691 4:0.530167 5:0.554082 6:0.542855 7:0.560814 8:0.464737 9:0.462175 10:0.638276 11:0.4518 12:0.545182 13:0.418598 14:0.558798 15:0.503085 16:0.595267 17:0.571096 18:0.51751 19:0.329872 20:0.508696 21:0.374155 22:0.564183 23:0.484082 24:0.524056 25:0.486486 26:0.465362 27:0.517111 28:0.397493 29:0.48483 30:0.500155 31:0.541109 
128 1:0.534337 2:0.544252 3:0.579036 4:0.628733 5:0.44217 6:0.399437 7:0.640856 8:0.358744 9:0.56383 10:0.654423 11:0.498659 12:0.582647 13:0.242406 14:0.73903 15:0.562348 16:0.746816 17:0.725796 18:0.568649 19:0.229078 20:0.312464 21:0.243434 22:0.758287 23:0.369837 24:0.635176 25:0.621179 26:0.560936 27:0.458136 28:0.524512 29:0.398284 30:0.606991 31:0.469664 
128 1:0.525557 2:0.383102 3:0.475627 4:0.554062 5:0.444352 6:0.40123 7:0.632156 8:0.324093 9:0.713357 10:0.668639 11:0.48765 12:0.570658 13:0.319535 14:0.637401 15:0.538097 16:0.676799 17:0.67817 18:0.473596 19:0.55956 20:0.340338 21:0.385689 22:0.631807 23:0.482873 24:0.672614 25:0.568897 26:0.529506 27:0.539294 28:0.457939 29:0.362626 30:0.517427 31:0.430164 
128 1:0.391972 2:0.415737 3:0.543534 4:0.568548 5:0.516301 6:0.474732 7:0.615626 8:0.44945 9:0.577423 10:0.650048 11:0.475653 12:0.513712 13:0.355164 14:0.648237 15:0.491606 16:0.662942 17:0.682364 18:0.473596 19:0.429444 20:0.38314 21:0.345937 22:0.688428 23:0.343643 24:0.529234 25:0.495569 26:0.480597 27:0.417287 28:0.482869 29:0.446029 30:0.520219 31:0.539987 
128 1:0.522734 2:0.459176 3:0.56213 4:0.593638 5:0.42629 6:0.390473 7:0.693057 8:0.354668 9:0.556147 10:0.708266 11:0.494284 12:0.567661 13:0.262589 14:0.754094 15:0.555029 16:0.767212 17:0.759962 18:0.554197 19:0.276726 20:0.282464 21:0.245414 22:0.774948 23:0.31886 24:0.637964 25:0.60257 26:0.565747 27:0.488976 28:0.540669 29:0.391031 30:0.592926 31:0.438318 
128 1:0.517717 2:0.39984 3:0.507326 4:0.595878 5:0.431332 6:0.396748 7:0.563424 8:0.290461 9:0.656619 10:0.565005 11:0.509527 12:0.530196 13:0.225517 14:0.683331 15:0.526905 16:0.692657 17:0.726635 18:0.420233 19:0.498473 20:0.324734 21:0.241079 22:0.72444 23:0.453455 24:0.635176 25:0.562694 26:0.44628 27:0.475179 28:0.511838 29:0.385471 30:0.621884 31:0.556445 
128 1:0.572593 2:0.49904 3:0.504086 4:0.618429 5:0.39024 6:0.316972 7:0.675657 8:0.326131 9:0.673463 10:0.78752 11:0.515879 12:0.588641 13:0.267944 14:0.672372 15:0.552877 16:0.713345 17:0.721296 18:0.629238 19:0.528406 20:0.354493 21:0.309142 22:0.713333 23:0.292867 24:0.628405 25:0.655295 26:0.600224 27:0.560124 28:0.497493 29:0.381361 30:0.54773 31:0.387821 
18.40921064028808 1:0.382879 2:0.41035 3:0.532685 4:0.530765 5:0.603905 6:0.57871 7:0.524274 8:0.440277 9:0.593972 10:0.742618 11:0.446436 12:0.506219 13:0.43425 14:0.515084 15:0.458028 16:0.47353 17:0.467645 18:0.488605 19:0.514966 20:0.524686 21:0.414242 22:0.521813 23:0.517933 24:0.539589 25:0.425565 26:0.445798 27:0.473827 28:0.368245 29:0.487973 30:0.452373 31:0.558989 
128 1:0.562872 2:0.472846 3:0.546774 4:0.64083 5:0.376919 6:0.33221 7:0.691317 8:0.235426 9:0.742908 10:0.770344 11:0.501341 12:0.6321 13:0.176604 14:0.729754 15:0.623188 16:0.715101 17:0.665129 18:0.717621 19:0.365913 20:0.291498 21:0.248893 22:0.704391 23:0.435523 24:0.760236 25:0.710456 26:0.657954 27:0.532395 28:0.493593 29:0.348967 30:0.60544 31:0.336949 
83.38257245718638 1:0.529319 2:0.589237 3:0.593407 4:0.587515 5:0.489283 6:0.446048 7:0.685227 8:0.358744 9:0.512411 10:0.622001 11:0.474524 12:0.567661 13:0.325713 14:0.668226 15:0.538528 16:0.621957 17:0.581125 18:0.654252 19:0.163103 20:0.379903 21:0.302051 22:0.654022 23:0.464941 24:0.646726 25:0.57377 26:0.632777 27:0.560665 28:0.451532 29:0.427656 30:0.535422 31:0.400239 
25.83049200859687 1:0.519912 2:0.458749 3:0.531417 4:0.694295 5:0.224442 6:0.152937 7:0.863581 8:0.228292 9:0.670804 10:0.673271 11:0.572195 12:0.639592 13:0.0586963 14:0.894348 15:0.613861 16:0.91393 17:0.914318 18:0.787104 19:0.243128 20:0.143044 21:0.0981817 22:0.943379 23:0.0919806 24:0.727975 25:0.834736 26:0.752245 27:0.600974 28:0.648607 29:0.32044 30:0.707932 31:0.281065 
128 1:0.421762 2:0.637943 3:0.550578 4:0.586918 5:0.464823 6:0.426328 7:0.674787 8:0.367917 9:0.602837 10:0.665166 11:0.475229 12:0.596134 13:0.29791 14:0.643968 15:0.550725 16:0.63152 17:0.597674 18:0.669261 19:0.348198 20:0.402802 21:0.328195 22:0.633903 23:0.447612 24:0.621635 25:0.617412 26:0.613855 27:0.600568 28:0.441365 29:0.416777 30:0.544213 31:0.425226 
128 1:0.43211 2:0.6241 3:0.522964 4:0.584528 5:0.479725 6:0.432603 7:0.642596 8:0.370974 9:0.594267 10:0.554455 11:0.485956 12:0.599131 13:0.356503 14:0.574601 15:0.524752 16:0.600439 17:0.57693 18:0.599222 19:0.400122 20:0.434589 21:0.420517 22:0.557477 23:0.558835 24:0.622829 25:0.61121 26:0.583547 27:0.607196 28:0.39805 29:0.402393 30:0.497156 31:0.406374 
128 1:0.455942 2:0.504361 3:0.561285 4:0.590054 5:0.444503 6:0.407504 7:0.633026 8:0.332246 9:0.568262 10:0.563911 11:0.517008 12:0.600629 13:0.266502 14:0.667816 15:0.563208 16:0.661869 17:0.621277 18:0.530295 19:0.343922 20:0.345556 21:0.282436 22:0.65004 23:0.486097 24:0.660666 25:0.590164 26:0.519403 27:0.536995 28:0.457103 29:0.383174 30:0.583721 31:0.421935 
43.26208221957258 1:0.46974 2:0.484863 3:0.497605 4:0.623954 5:0.336279 6:0.282014 7:0.713068 8:0.278231 9:0.717199 10:0.751367 11:0.517573 12:0.579649 13:0.131294 14:0.736568 15:0.569092 16:0.73535 17:0.740057 18:0.622012 19:0.637141 20:0.305894 21:0.194343 22:0.768382 23:0.249547 24:0.602119 25:0.692512 26:0.543778 27:0.548086 28:0.531755 29:0.361054 30:0.650326 31:0.416548 
128 1:0.502665 2:0.472606 3:0.570161 4:0.595878 5:0.482133 6:0.443359 7:0.589525 8:0.392377 9:0.523641 10:0.693985 11:0.475794 12:0.540686 13:0.283493 14:0.640808 15:0.494762 16:0.61049 17:0.599542 18:0.574208 19:0.218082 20:0.420338 21:0.292618 22:0.664571 23:0.36349 24:0.610084 25:0.570669 26:0.521328 27:0.495739 28:0.458774 29:0.454611 30:0.549385 31:0.528391 
128 1:0.557855 2:0.673006 3:0.536348 4:0.581691 5:0.40597 6:0.359101 7:0.689577 8:0.27925 9:0.620272 10:0.594725 11:0.510233 12:0.678555 13:0.292452 14:0.70053 15:0.653465 16:0.75516 17:0.67836 18:0.679822 19:0.317654 20:0.32686 21:0.274636 22:0.660519 23:0.504634 24:0.716027 25:0.656845 26:0.668858 27:0.638577 28:0.464902 29:0.36323 30:0.573172 31:0.325802 
128 1:0.57228 2:0.480608 3:0.547055 4:0.579152 5:0.462565 6:0.429017 7:0.693927 8:0.307786 9:0.648345 10:0.676809 11:0.490614 12:0.609621 13:0.284214 14:0.724993 15:0.582293 16:0.723347 17:0.67653 18:0.69483 19:0.249236 20:0.291884 21:0.297703 22:0.692305 23:0.43381 24:0.757448 25:0.600576 26:0.63406 27:0.609766 28:0.49039 29:0.380636 30:0.557555 31:0.351837 
128 1:0.538727 2:0.426887 3:0.533812 4:0.589307 5:0.43788 6:0.388681 7:0.700017 8:0.353649 9:0.663712 10:0.720682 11:0.512209 12:0.575153 13:0.280198 14:0.726142 15:0.550151 16:0.735643 17:0.744023 18:0.585881 19:0.402566 20:0.295749 21:0.255837 22:0.759021 23:0.331856 24:0.643142 25:0.593265 26:0.583707 27:0.566888 28:0.530083 29:0.390427 30:0.567173 31:0.430687 
128 1:0.499843 2:0.526674 3:0.567484 4:0.554809 5:0.562286 6:0.514172 7:0.570384 8:0.445373 9:0.466903 10:0.66137 11:0.475512 12:0.537689 13:0.41798 14:0.570701 15:0.466207 16:0.536863 17:0.513441 18:0.521957 19:0.277337 20:0.475894 21:0.39072 22:0.578889 23:0.443381 24:0.57862 25:0.471644 26:0.511866 27:0.530772 28:0.401254 29:0.469358 30:0.468818 31:0.496147 
67.54300757357964 1:0.392913 2:0.790771 3:0.552832 4:0.530914 5:0.61429 6:0.602015 7:0.518184 8:0.383204 9:0.61643 10:0.601994 11:0.435709 12:0.630601 13:0.441767 14:0.584452 15:0.613144 16:0.630886 17:0.55081 18:0.645359 19:0.514356 20:0.467826 21:0.392914 22:0.533724 23:0.655148 24:0.610483 25:0.458795 26:0.544099 27:0.499797 28:0.380084 29:0.450623 30:0.501603 31:0.517394 
128 1:0.371276 2:0.391891 3:0.574387 4:0.568548 5:0.574779 6:0.530306 7:0.576475 8:0.476967 9:0.570035 10:0.606883 11:0.443754 12:0.524202 13:0.426836 14:0.524114 15:0.46549 16:0.524274 17:0.518742 18:0.558088 19:0.351252 20:0.491739 21:0.458181 22:0.532188 23:0.489523 24:0.548749 25:0.48848 26:0.518441 27:0.375896 28:0.378134 29:0.484226 30:0.420519 31:0.553378 
128 1:0.36375 2:0.525327 3:0.563539 4:0.555705 5:0.549566 6:0.520446 7:0.544284 8:0.458622 9:0.406915 10:0.544291 11:0.449118 12:0.510715 13:0.4429 14:0.524196 15:0.468934 16:0.565748 17:0.560114 18:0.490828 19:0.276726 20:0.529855 21:0.412168 22:0.545671 23:0.49859 24:0.50454 25:0.482942 26:0.477229 27:0.409983 28:0.384819 29:0.496072 30:0.469128 31:0.552854 
98.95585830356447 1:0.590781 2:0.501494 3:0.512398 4:0.650239 5:0.331537 6:0.256019 7:0.805289 8:0.184468 9:0.853132 10:0.718173 11:0.568525 12:0.720515 13:0.135825 14:0.827772 15:0.662936 16:0.775555 17:0.720305 18:0.844914 19:0.411118 20:0.189324 21:0.117957 22:0.815711 23:0.320572 24:0.785328 25:0.769163 26:0.787524 27:0.724469 28:0.560167 29:0.329506 30:0.642155 31:0.279195 
128 1:0.557228 2:0.352507 3:0.535221 4:0.61126 5:0.438633 6:0.395852 7:0.716548 8:0.281288 9:0.728723 10:0.699582 11:0.498942 12:0.588641 13:0.235918 14:0.731355 15:0.548142 16:0.699976 17:0.689418 18:0.756531 19:0.317043 20:0.282609 21:0.25391 22:0.733766 23:0.364799 24:0.750677 25:0.632698 26:0.664047 27:0.576356 28:0.515181 29:0.391877 30:0.565001 31:0.395302 
128 1:0.414864 2:0.482582 3:0.508171 4:0.601404 5:0.40168 6:0.367168 7:0.672177 8:0.283326 9:0.701832 10:0.69302 11:0.49753 12:0.602128 13:0.211307 14:0.681977 15:0.561487 16:0.679288 17:0.660591 18:0.72985 19:0.462431 20:0.352126 21:0.265163 22:0.685354 23:0.356639 24:0.69452 25:0.652858 26:0.6161 27:0.595293 28:0.480919 29:0.395866 30:0.592305 31:0.426797 
107.9703266770317 1:0.54688 2:0.53561 3:0.511693 4:0.590651 5:0.422151 6:0.356412 7:0.705238 8:0.289441 9:0.670508 10:0.461692 11:0.518702 12:0.657575 13:0.303161 14:0.651726 15:0.578419 16:0.673872 17:0.623642 18:0.555308 19:0.458155 20:0.308551 21:0.370636 22:0.600335 23:0.596414 24:0.69213 25:0.652636 26:0.616421 27:0.580549 28:0.431755 29:0.328901 30:0.523012 31:0.334406 
128 1:0.679523 2:0.560896 3:0.559594 4:0.607825 5:0.497486 6:0.453219 7:0.626936 8:0.294537 9:0.772163 10:0.781023 11:0.501482 12:0.648584 13:0.252909 14:0.697 15:0.623619 16:0.676019 17:0.610486 18:0.781545 19:0.340867 20:0.349082 21:0.241333 22:0.667295 23:0.491537 24:0.759838 25:0.619628 26:0.617864 27:0.659948 28:0.463788 29:0.398042 30:0.568725 31:0.385726 
128 1:0.478833 2:0.567338 3:0.553114 4:0.54764 5:0.528945 6:0.50969 7:0.581695 8:0.389319 9:0.509752 10:0.625474 11:0.465773 12:0.555672 13:0.346205 14:0.665599 15:0.524896 16:0.672262 17:0.649152 18:0.540856 19:0.301161 20:0.384686 21:0.312969 22:0.666248 23:0.433105 24:0.621634 25:0.495791 26:0.502405 27:0.522927 28:0.467827 29:0.439744 30:0.553108 31:0.524127 
128 1:0.507996 2:0.37386 3:0.562694 4:0.603494 5:0.528569 6:0.463079 7:0.625196 8:0.401549 9:0.652187 10:0.607205 11:0.481016 12:0.549678 13:0.354546 14:0.60596 15:0.504233 16:0.608392 17:0.603127 18:0.657032 19:0.387905 20:0.400918 21:0.384565 22:0.618638 23:0.411042 24:0.62044 25:0.537439 26:0.565106 27:0.425538 28:0.436072 29:0.444941 30:0.46706 31:0.470711 
128 1:0.312637 2:0.596532 3:0.554804 4:0.578106 5:0.530601 6:0.48997 7:0.544284 8:0.3883 9:0.515366 10:0.539402 11:0.456599 12:0.570658 13:0.390176 14:0.558059 15:0.526331 16:0.543938 17:0.503451 18:0.540856 19:0.338424 20:0.483092 21:0.394413 22:0.545985 23:0.532138 24:0.550741 25:0.526362 26:0.550834 27:0.411876 28:0.382173 29:0.469963 30:0.494157 31:0.525698 
128 1:0.530887 2:0.541638 3:0.544238 4:0.589456 5:0.486423 6:0.420053 7:0.663477 8:0.373013 9:0.687057 10:0.6523 11:0.506987 12:0.644088 13:0.33323 14:0.664943 15:0.571387 16:0.655672 17:0.614528 18:0.632574 19:0.382407 20:0.352464 21:0.316715 22:0.658563 23:0.444388 24:0.642345 25:0.597031 26:0.633739 27:0.577573 28:0.457799 29:0.405778 30:0.508636 31:0.438169 
128 1:0.53904 2:0.570552 3:0.57002 4:0.597819 5:0.471597 6:0.418261 7:0.638246 8:0.385243 9:0.559693 10:0.593696 11:0.512209 12:0.618612 13:0.303882 14:0.731355 15:0.570527 16:0.734911 17:0.702688 18:0.462479 19:0.285278 20:0.298454 21:0.257724 22:0.73925 23:0.429075 24:0.596543 25:0.58241 26:0.546183 27:0.478831 28:0.511699 29:0.39091 30:0.576585 31:0.488442 
128 1:0.569458 2:0.547573 3:0.549732 4:0.603345 5:0.4293 6:0.40123 7:0.729598 8:0.263963 9:0.734929 10:0.650498 11:0.51362 12:0.665068 13:0.237463 14:0.769856 15:0.64543 16:0.797756 17:0.750391 18:0.789327 19:0.302383 20:0.257391 21:0.194584 22:0.749659 23:0.470582 24:0.7686 25:0.665707 26:0.685536 27:0.658596 28:0.526741 29:0.366131 30:0.611232 31:0.35857 
128 1:0.349326 2:0.575647 3:0.515779 4:0.60215 5:0.429827 6:0.396748 7:0.711328 8:0.341419 9:0.575946 10:0.536443 11:0.471418 12:0.540686 13:0.284008 14:0.651808 15:0.506242 16:0.692266 17:0.709018 18:0.564202 19:0.564447 20:0.35314 21:0.380618 22:0.656502 23:0.463933 24:0.567468 25:0.625388 26:0.541212 27:0.468146 28:0.469499 29:0.369515 30:0.564484 31:0.414379 
51.23833420373943 1:0.244591 2:0.466831 3:0.549591 4:0.523148 5:0.614065 6:0.595741 7:0.507743 8:0.529963 9:0.489066 10:0.613123 11:0.427664 12:0.467256 13:0.485841 14:0.483684 15:0.446692 16:0.525153 17:0.544137 18:0.432462 19:0.502138 20:0.576328 21:0.438084 22:0.525481 23:0.485392 24:0.413733 25:0.391227 26:0.396087 27:0.351684 28:0.371588 29:0.528829 30:0.443582 31:0.645695 
128 1:0.577924 2:0.506829 3:0.600874 4:0.638142 5:0.415678 6:0.363583 7:0.733948 8:0.325112 9:0.57565 10:0.697459 11:0.506987 12:0.627604 13:0.243744 14:0.756434 15:0.58258 16:0.718078 17:0.666349 18:0.703168 19:0.0354307 20:0.286667 21:0.233586 22:0.747145 23:0.380012 24:0.71762 25:0.687195 26:0.705099 27:0.553361 28:0.513928 29:0.391515 30:0.576999 31:0.35438 
128 1:0.455629 2:0.522726 3:0.554804 4:0.55899 5:0.522322 6:0.498037 7:0.651296 8:0.409702 9:0.629433 10:0.670183 11:0.469019 12:0.572156 13:0.343837 14:0.716619 15:0.568948 16:0.760478 17:0.749285 18:0.595887 19:0.394624 20:0.324106 21:0.291896 22:0.730169 23:0.389382 24:0.602915 25:0.517723 26:0.545702 27:0.486 28:0.513788 29:0.42536 30:0.552384 31:0.502207 
128 1:0.525557 2:0.490691 3:0.513384 4:0.59095 5:0.424785 6:0.37165 7:0.686967 8:0.250713 9:0.796099 10:0.714249 11:0.507834 12:0.644088 13:0.221707 14:0.737183 15:0.621036 16:0.682118 17:0.626501 18:0.69761 19:0.448381 20:0.281449 21:0.235085 22:0.706871 23:0.410739 24:0.737932 25:0.627603 26:0.668858 27:0.617611 28:0.49234 29:0.370482 30:0.587134 31:0.377347 
128 1:0.381624 2:0.409603 3:0.498591 4:0.562873 5:0.438407 6:0.40123 7:0.713938 8:0.379128 9:0.656915 10:0.591187 11:0.494425 12:0.551176 13:0.314077 14:0.69154 15:0.534079 16:0.78507 17:0.815863 18:0.637021 19:0.555895 20:0.3157 21:0.32279 22:0.731426 23:0.289039 24:0.605305 25:0.562694 26:0.559012 27:0.518328 28:0.522702 29:0.402514 30:0.546385 31:0.452083 
76.23143057563354 1:0.570085 2:0.478954 3:0.541984 4:0.557497 5:0.501927 6:0.478317 7:0.687837 8:0.3404 9:0.815307 10:0.639048 11:0.510374 12:0.65308 13:0.311399 14:0.718426 15:0.649017 16:0.777946 17:0.742803 18:0.660367 19:0.417227 20:0.276812 21:0.25565 22:0.69248 23:0.573242 24:0.729568 25:0.583739 26:0.580821 27:0.673475 28:0.496657 29:0.370482 30:0.559934 31:0.400613 
128 1:0.319849 2:0.532182 3:0.570865 4:0.512246 5:0.592314 6:0.577813 7:0.551244 8:0.502446 9:0.40721 10:0.511997 11:0.435991 12:0.501723 13:0.464628 14:0.577023 15:0.484144 16:0.623372 17:0.614642 18:0.430795 19:0.287111 20:0.468357 21:0.412208 22:0.586608 23:0.47169 24:0.496973 25:0.404962 26:0.436177 27:0.397674 28:0.417409 29:0.493291 30:0.478436 31:0.588539 
128 1:0.417686 2:0.568912 3:0.530572 4:0.600806 5:0.414248 6:0.375235 7:0.682617 8:0.338361 9:0.570922 10:0.573689 11:0.494001 12:0.618612 13:0.298322 14:0.657801 15:0.566509 16:0.733935 17:0.704671 18:0.672596 19:0.350642 20:0.361643 21:0.350246 22:0.650599 23:0.423534 24:0.660268 25:0.656402 26:0.617062 27:0.535913 28:0.46337 29:0.387767 30:0.54835 31:0.387148 
128 1:0.587645 2:0.494012 3:0.541561 4:0.636201 5:0.356749 6:0.290977 7:0.779189 8:0.270078 9:0.706856 10:0.622515 11:0.523642 12:0.6321 13:0.19967 14:0.774617 15:0.605682 16:0.768139 17:0.74654 18:0.632018 19:0.315211 20:0.226039 21:0.230522 22:0.770512 23:0.413258 24:0.696909 25:0.723527 26:0.686498 27:0.571487 28:0.537744 29:0.332286 30:0.601406 31:0.331787 
95.64009350377522 1:0.377861 2:0.599066 3:0.556917 4:0.537784 5:0.629644 6:0.587673 7:0.495563 8:0.455565 9:0.531028 10:0.562367 11:0.448977 12:0.584145 13:0.49964 14:0.460945 15:0.484001 16:0.442889 17:0.387912 18:0.489716 19:0.422114 20:0.543478 21:0.533791 22:0.417129 23:0.678219 24:0.577426 25:0.445281 26:0.499519 27:0.472339 28:0.300975 29:0.465611 30:0.39518 31:0.525324 
128 1:0.547507 2:0.371152 3:0.499859 4:0.608274 5:0.416055 6:0.36179 7:0.646076 8:0.314921 9:0.65396 10:0.712641 11:0.502188 12:0.560168 13:0.218309 14:0.692033 15:0.496628 16:0.670749 17:0.682364 18:0.627015 19:0.353085 20:0.326232 21:0.301944 22:0.715044 23:0.269897 24:0.691333 25:0.637129 26:0.560616 27:0.57825 28:0.502785 29:0.400701 30:0.565208 31:0.449016 
128 1:0.351207 2:0.493265 3:0.567343 4:0.608721 5:0.448868 6:0.404815 7:0.629546 8:0.418875 9:0.439421 10:0.605403 11:0.48271 12:0.53619 13:0.318093 14:0.65345 15:0.470082 16:0.633911 17:0.647207 18:0.452474 19:0.226023 20:0.394058 21:0.314936 22:0.702365 23:0.349184 24:0.523658 25:0.586841 26:0.552918 27:0.394021 28:0.483844 29:0.444095 30:0.54773 31:0.5545 
128 1:0.508623 2:0.496706 3:0.476191 4:0.624253 5:0.332064 6:0.285599 7:0.705238 8:0.235426 9:0.691489 10:0.681891 11:0.528582 12:0.617114 13:0.184636 14:0.765382 15:0.593485 16:0.8101 17:0.805682 18:0.594775 19:0.522908 20:0.261256 21:0.209355 22:0.787663 23:0.334475 24:0.67142 25:0.70226 26:0.607922 27:0.553767 28:0.552228 29:0.336758 30:0.648567 31:0.378469 
128 1:0.422076 2:0.597026 3:0.51437 4:0.607228 5:0.381962 6:0.340277 7:0.742648 8:0.281288 9:0.687943 10:0.640077 11:0.501905 12:0.611119 13:0.220266 14:0.735911 15:0.608839 16:0.763601 17:0.738646 18:0.689272 19:0.480758 20:0.288502 21:0.270247 22:0.725802 23:0.385855 24:0.662657 25:0.67479 26:0.637107 27:0.589206 28:0.511003 29:0.355373 30:0.612783 31:0.334406 
128 1:0.546253 2:0.517805 3:0.549732 4:0.555854 5:0.488229 6:0.455908 7:0.658257 8:0.330208 9:0.597813 10:0.66523 11:0.510656 12:0.603626 13:0.293173 14:0.718713 15:0.562778 16:0.679971 17:0.640877 18:0.618121 19:0.30055 20:0.316377 21:0.232864 22:0.706137 23:0.410941 24:0.694918 25:0.544085 26:0.566228 27:0.664412 28:0.491644 29:0.406624 30:0.579894 31:0.423057 
128 1:0.643775 2:0.608989 3:0.553395 4:0.634707 5:0.39897 6:0.34207 7:0.720028 8:0.26702 9:0.76448 10:0.759473 11:0.52717 12:0.680054 13:0.206982 14:0.777655 15:0.647582 16:0.763747 17:0.7102 18:0.740967 19:0.295052 20:0.252512 21:0.210693 22:0.764609 23:0.429478 24:0.772184 25:0.706247 26:0.720333 27:0.667659 28:0.52883 29:0.343527 30:0.608646 31:0.338221 
80.61389554299488 1:0.346817 2:0.49824 3:0.546915 4:0.549283 5:0.605034 6:0.559886 7:0.545154 8:0.518753 9:0.448286 10:0.5266 11:0.437262 12:0.512213 13:0.556276 14:0.394245 15:0.414263 16:0.472408 17:0.480076 18:0.595887 19:0.367135 20:0.637826 21:0.556778 22:0.420657 23:0.56347 24:0.490999 25:0.466327 26:0.525657 27:0.438253 28:0.304039 29:0.526411 30:0.34533 31:0.542904 
128 1:0.453747 2:0.568672 3:0.523809 4:0.581691 5:0.448943 6:0.42095 7:0.673047 8:0.277212 9:0.636525 10:0.591058 11:0.496119 12:0.636595 13:0.271651 14:0.723269 15:0.595351 16:0.716858 17:0.657541 18:0.682046 19:0.341478 20:0.314203 21:0.250311 22:0.690943 23:0.459601 24:0.704477 25:0.609437 26:0.638871 27:0.585554 28:0.484401 29:0.389339 30:0.595408 31:0.398893 
128 1:0.450298 2:0.281582 3:0.535503 4:0.60006 5:0.467307 6:0.415572 7:0.608665 8:0.407664 9:0.599882 10:0.593953 11:0.489908 12:0.476247 13:0.267635 14:0.708369 15:0.463338 16:0.701488 17:0.765567 18:0.39522 19:0.403177 20:0.303285 21:0.284657 22:0.783017 23:0.261838 24:0.540784 25:0.521489 26:0.448524 27:0.342351 28:0.548189 29:0.429228 30:0.569035 31:0.608962 
128 1:0.668234 2:0.527287 3:0.555509 4:0.60215 5:0.427569 6:0.387784 7:0.722638 8:0.289441 9:0.693558 10:0.735606 11:0.530416 12:0.657575 13:0.232829 14:0.789763 15:0.62778 16:0.784874 17:0.73552 18:0.677599 19:0.218082 20:0.23715 21:0.194396 22:0.770268 23:0.431191 24:0.768201 25:0.662162 26:0.64304 27:0.702827 28:0.537605 29:0.35223 30:0.612162 31:0.329318 
51.09666740034294 1:0.227344 2:0.643145 3:0.571006 4:0.5796 5:0.570941 6:0.528513 7:0.615626 8:0.488178 9:0.476655 10:0.530524 11:0.426112 12:0.503222 13:0.421481 14:0.53454 15:0.443966 16:0.531496 17:0.540629 18:0.523624 19:0.563836 20:0.501159 21:0.472029 22:0.551189 23:0.482571 24:0.411343 25:0.492025 26:0.492302 27:0.320303 28:0.385933 29:0.471897 30:0.460441 31:0.569088 
128 1:0.565381 2:0.451654 3:0.539589 4:0.633961 5:0.406421 6:0.33221 7:0.739168 8:0.299633 9:0.750295 10:0.730331 11:0.532251 12:0.630601 13:0.201936 14:0.737471 15:0.578419 16:0.696951 17:0.666387 18:0.833241 19:0.326207 20:0.295169 21:0.226495 22:0.745887 23:0.255591 24:0.728374 25:0.680328 26:0.698685 27:0.658866 28:0.51351 29:0.395745 30:0.572138 31:0.34458 
128 1:0.400439 2:0.440011 3:0.483094 4:0.560932 5:0.471145 6:0.442463 7:0.607795 8:0.361802 9:0.625296 10:0.593889 11:0.465773 12:0.549678 13:0.327979 14:0.613512 15:0.491749 16:0.664162 17:0.678093 18:0.563646 19:0.46121 20:0.386425 21:0.417332 22:0.620595 23:0.42293 24:0.649913 25:0.565131 26:0.529506 27:0.522521 28:0.450418 29:0.409888 30:0.51391 31:0.495998 
128 1:0.342741 2:0.606522 3:0.510425 4:0.57273 5:0.47393 6:0.452323 7:0.656516 8:0.318997 9:0.645095 10:0.594596 11:0.454058 12:0.567661 13:0.346308 14:0.580224 15:0.563926 16:0.63635 17:0.607893 18:0.707615 19:0.547343 20:0.45256 21:0.391442 22:0.556708 23:0.560347 24:0.622829 25:0.585069 26:0.599743 27:0.534019 28:0.400557 29:0.412789 30:0.52477 31:0.38019 
128 1:0.569458 2:0.460296 3:0.49042 4:0.610663 5:0.368866 6:0.318764 7:0.761789 8:0.208928 9:0.852246 10:0.690511 11:0.53211 12:0.681553 13:0.177119 14:0.803349 15:0.642129 16:0.796145 17:0.756454 18:0.755976 19:0.455101 20:0.193575 21:0.199508 22:0.779804 23:0.38918 24:0.796479 25:0.708906 26:0.716645 27:0.678209 28:0.549164 29:0.323583 30:0.62085 31:0.325578 
128 1:0.522107 2:0.478954 3:0.519301 4:0.597073 5:0.415076 6:0.353723 7:0.706977 8:0.361802 9:0.624409 10:0.772917 11:0.50981 12:0.575153 13:0.311811 14:0.670238 15:0.52834 16:0.676604 17:0.683394 18:0.618677 19:0.354918 20:0.368502 21:0.302038 22:0.711167 23:0.31896 24:0.625617 25:0.629154 26:0.644644 27:0.6168 28:0.492897 29:0.406987 30:0.530768 31:0.38999 
29.23467933988229 1:0.292161 2:0.569659 3:0.64159 4:0.61141 5:0.4283 6:0.446917 7:0.588133 8:0.637689 9:0.478339 10:0.340946 11:0.601412 12:0.604676 13:0.423407 14:0.673357 15:0.584446 16:0.719639 17:0.754586 18:0.451195 19:0.490348 20:0.430242 21:0.458342 22:0.722659 23:0.630768 24:0.302892 25:0.391442 26:0.507537 27:0.433789 28:0.58287 29:0.621903 30:0.651464 31:0.752974 
128 1:0.35058 2:0.482609 3:0.54466 4:0.548387 5:0.541965 6:0.515964 7:0.564294 8:0.47289 9:0.52039 10:0.601866 11:0.446577 12:0.513712 13:0.422511 14:0.551205 15:0.497202 16:0.630788 17:0.633098 18:0.469149 19:0.437996 20:0.480483 21:0.438539 22:0.568165 23:0.478743 24:0.513701 25:0.482942 26:0.445959 27:0.388611 28:0.408217 29:0.460655 30:0.474403 31:0.536695 
128 1:0.578238 2:0.499013 3:0.572837 4:0.600358 5:0.469113 6:0.396748 7:0.736558 8:0.341419 9:0.70656 10:0.652879 11:0.542414 12:0.654578 13:0.293585 14:0.710463 15:0.586454 16:0.662113 17:0.613079 18:0.751529 19:0.305437 20:0.299855 21:0.252064 22:0.699151 23:0.399859 24:0.719213 25:0.608773 26:0.68762 27:0.687136 28:0.482033 29:0.391998 30:0.531803 31:0.344281 
40.73116097700292 1:0.492631 2:0.407189 3:0.477599 4:0.504629 5:0.605786 6:0.59843 7:0.506003 8:0.359764 9:0.689716 10:0.527244 11:0.449118 12:0.557171 13:0.396046 14:0.620572 15:0.517578 16:0.663772 17:0.646864 18:0.41134 19:0.604765 20:0.346908 21:0.441777 22:0.572427 23:0.62291 24:0.672216 25:0.416925 26:0.383419 27:0.464899 28:0.428273 29:0.394295 30:0.503051 31:0.549114 
128 1:0.549388 2:0.458336 3:0.539307 4:0.599014 5:0.502077 6:0.424535 7:0.614755 8:0.405626 9:0.583629 10:0.637504 11:0.488779 12:0.570658 13:0.399753 14:0.568485 15:0.477687 16:0.572871 17:0.573956 18:0.551417 19:0.353085 20:0.425362 21:0.45034 22:0.585735 23:0.45537 24:0.61566 25:0.570891 26:0.593329 27:0.491546 28:0.413788 29:0.424151 30:0.433654 31:0.455076 
128 1:0.462214 2:0.545625 3:0.572133 4:0.632019 5:0.404163 6:0.357308 7:0.722638 8:0.333265 9:0.613475 10:0.696108 11:0.511221 12:0.617114 13:0.203892 14:0.795386 15:0.587315 16:0.762771 17:0.725491 18:0.656476 19:0.213195 20:0.256329 21:0.20676 22:0.802473 23:0.288938 24:0.667437 25:0.663934 26:0.654746 27:0.524821 28:0.551253 29:0.383779 30:0.626228 31:0.405327 
128 1:0.448103 2:0.454935 3:0.568047 4:0.61589 5:0.388509 6:0.346552 7:0.695667 8:0.311863 9:0.665189 10:0.794854 11:0.498095 12:0.581148 13:0.210998 14:0.730288 15:0.600086 16:0.681044 17:0.646864 18:0.568649 19:0.319487 20:0.314783 21:0.220354 22:0.733417 23:0.380314 24:0.649116 25:0.645104 26:0.619147 27:0.488841 28:0.505014 29:0.38257 30:0.608646 31:0.391561 
128 1:0.656946 2:0.462697 3:0.545928 4:0.648746 5:0.369995 6:0.29277 7:0.8166 8:0.282307 9:0.688534 10:0.732004 11:0.531969 12:0.624606 13:0.22387 14:0.750441 15:0.548285 16:0.71637 17:0.709781 18:0.750417 19:0.2865 20:0.249614 21:0.26907 22:0.761116 23:0.343139 24:0.737136 25:0.73549 26:0.741341 27:0.659948 28:0.528412 29:0.342077 30:0.555486 31:0.281439 
128 1:0.693321 2:0.502401 3:0.515356 4:0.589158 5:0.474457 6:0.427224 7:0.635636 8:0.276192 9:0.745863 10:0.711033 11:0.50981 12:0.648584 13:0.31593 14:0.632599 15:0.594059 16:0.652061 17:0.597941 18:0.682601 19:0.409896 20:0.379034 21:0.314401 22:0.597506 23:0.60135 24:0.757448 25:0.626938 26:0.615298 27:0.676586 28:0.424791 29:0.371812 30:0.523218 31:0.341438 
34.98510980596532 1:0.545626 2:0.532115 3:0.513525 4:0.577957 5:0.497486 6:0.446048 7:0.645206 8:0.249694 9:0.79078 10:0.545963 11:0.505434 12:0.657575 13:0.305736 14:0.614005 15:0.595781 16:0.580581 17:0.517979 18:0.670372 19:0.583995 20:0.356812 21:0.344987 22:0.54574 23:0.678722 24:0.73156 25:0.595702 26:0.601347 27:0.636819 28:0.39234 29:0.360812 30:0.518771 31:0.361861 
128 1:0.484164 2:0.549427 3:0.540011 4:0.566308 5:0.551599 6:0.515964 7:0.602575 8:0.41276 9:0.6776 10:0.639305 11:0.468172 12:0.605125 13:0.407785 14:0.578993 15:0.558043 16:0.643133 17:0.611363 18:0.645914 19:0.414783 20:0.438454 21:0.416757 22:0.562926 23:0.572638 24:0.639557 25:0.547187 26:0.566068 27:0.551873 28:0.404735 29:0.429228 30:0.466956 31:0.453131 
128 1:0.540608 2:0.566565 3:0.530008 4:0.587515 5:0.487778 6:0.453219 7:0.650426 8:0.283326 9:0.774232 10:0.710389 11:0.504305 12:0.639592 13:0.260323 14:0.749333 15:0.630076 16:0.736033 17:0.688427 18:0.688716 19:0.481368 20:0.280918 21:0.227753 22:0.727409 23:0.461112 24:0.716027 25:0.581081 26:0.604394 27:0.606926 28:0.509053 29:0.378218 30:0.60213 31:0.411012 
128 1:0.580433 2:0.457589 3:0.482953 4:0.610961 5:0.346514 6:0.295459 7:0.729598 8:0.281288 9:0.679374 10:0.704278 11:0.516161 12:0.557171 13:0.186798 14:0.737307 15:0.539245 16:0.788924 17:0.82448 18:0.60478 19:0.540623 20:0.270193 21:0.27117 22:0.774494 23:0.286319 24:0.671021 25:0.680771 26:0.556446 27:0.60936 28:0.548607 29:0.337846 30:0.615058 31:0.37226 
128 1:0.532769 2:0.372699 3:0.541138 4:0.59304 5:0.504486 6:0.444255 7:0.627806 8:0.37607 9:0.703605 10:0.688324 11:0.481581 12:0.548179 13:0.36402 14:0.593359 15:0.519587 16:0.588192 17:0.592679 18:0.594775 19:0.397068 20:0.414203 21:0.373018 22:0.612805 23:0.486097 24:0.631193 25:0.554719 26:0.594131 27:0.492493 28:0.432033 29:0.431645 30:0.469128 31:0.454851 
128 1:0.381938 2:0.389611 3:0.508594 4:0.549134 5:0.492896 6:0.461286 7:0.607795 8:0.429066 9:0.510343 10:0.558829 11:0.460692 12:0.446276 13:0.342189 14:0.638386 15:0.428613 16:0.666406 17:0.733117 18:0.324069 19:0.548564 20:0.361449 21:0.39646 22:0.689546 23:0.360467 24:0.503346 25:0.469207 26:0.390635 27:0.37806 28:0.493593 29:0.415327 30:0.535422 31:0.576345 
128 1:0.628097 2:0.5008 3:0.493378 4:0.614098 5:0.343428 6:0.32235 7:0.748738 8:0.204851 9:0.770095 10:0.748794 11:0.51235 12:0.651581 13:0.160334 14:0.834996 15:0.64256 16:0.876165 17:0.848198 18:0.695942 19:0.279169 20:0.17599 21:0.213583 22:0.812987 23:0.416482 24:0.841485 25:0.741693 26:0.688262 27:0.692412 28:0.579248 29:0.301583 30:0.659324 31:0.300591 
120.5657142783366 1:0.587959 2:0.549066 3:0.545083 4:0.598417 5:0.497185 6:0.446944 7:0.655646 8:0.293518 9:0.678487 10:0.575426 11:0.497389 12:0.623108 13:0.314798 14:0.642737 15:0.565648 16:0.624982 17:0.579409 18:0.647582 19:0.398901 20:0.341739 21:0.363866 22:0.594816 23:0.610618 24:0.723196 25:0.605007 26:0.599262 27:0.595834 28:0.42507 29:0.366977 30:0.520633 31:0.355502 
24.34009742315999 1:0.29884 2:0.788837 3:0.504086 4:0.589606 5:0.429526 6:0.385095 7:0.673047 8:0.337342 9:0.519799 10:0.5899 11:0.481722 12:0.576652 13:0.280507 14:0.662316 15:0.52547 16:0.655672 17:0.646749 18:0.553641 19:0.624313 20:0.382222 21:0.339234 22:0.668378 23:0.384546 24:0.513302 25:0.610323 26:0.549391 27:0.543623 28:0.464485 29:0.388734 30:0.593546 31:0.440488 
128 1:0.509564 2:0.353294 3:0.460834 4:0.587664 5:0.372404 6:0.327728 7:0.670437 8:0.224215 9:0.746454 10:0.554648 11:0.515173 12:0.566162 13:0.183709 14:0.703403 15:0.54068 16:0.705587 17:0.722593 18:0.466926 19:0.673794 20:0.250338 21:0.301208 22:0.694052 23:0.459097 24:0.696113 25:0.629154 26:0.492623 27:0.534019 28:0.50181 29:0.312825 30:0.609991 31:0.412508 
128 1:0.501411 2:0.543212 3:0.586785 4:0.553763 5:0.580423 6:0.540166 7:0.570384 8:0.44945 9:0.437352 10:0.562625 11:0.46422 12:0.534692 13:0.440428 14:0.555145 15:0.470943 16:0.559307 17:0.532393 18:0.590884 19:0.23091 20:0.491498 21:0.401437 22:0.559014 23:0.489422 24:0.593357 25:0.457687 26:0.524695 27:0.497768 28:0.390808 29:0.481325 30:0.457855 31:0.506097 
128 1:0.306146 2:0.454361 3:0.486616 4:0.547491 5:0.257428 6:0.249503 7:0.491735 8:0.394721 9:0.575443 10:0.409263 11:0.498095 12:0.508167 13:0.206601 14:0.719411 15:0.496197 16:0.711881 17:0.752869 18:0.615509 19:0.458338 20:0.322898 21:0.281767 22:0.79905 23:0.35402 24:0.334594 25:0.586117 26:0.48685 27:0.362776 28:0.502507 29:0.461501 30:0.650222 31:0.605297 
128 1:0.426466 2:0.364097 3:0.55734 4:0.582437 5:0.498013 6:0.45053 7:0.589525 8:0.42499 9:0.608156 10:0.628369 11:0.494143 12:0.522703 13:0.292658 14:0.647416 15:0.487444 16:0.620834 17:0.643737 18:0.437465 19:0.438607 20:0.370048 21:0.298746 22:0.690279 23:0.361173 24:0.548351 25:0.513735 26:0.443714 27:0.422021 28:0.481198 29:0.437205 30:0.544317 31:0.588913 
128 1:0.700847 2:0.492411 3:0.537898 4:0.596177 5:0.434493 6:0.393163 7:0.711328 8:0.285365 9:0.731974 10:0.760566 11:0.521807 12:0.64259 13:0.252291 14:0.76649 15:0.613431 16:0.762088 17:0.717255 18:0.638132 19:0.248015 20:0.240145 21:0.259878 22:0.73719 23:0.480153 24:0.802453 25:0.649535 26:0.645125 27:0.703368 28:0.520474 29:0.333132 30:0.584755 31:0.304631 
128 1:0.509878 2:0.497959 3:0.565793 4:0.58408 5:0.541739 6:0.502519 7:0.593005 8:0.362821 9:0.71513 10:0.656031 11:0.477911 12:0.603626 13:0.325507 14:0.650207 15:0.586167 16:0.63313 17:0.585586 18:0.614786 19:0.368968 20:0.369758 21:0.323566 22:0.622655 23:0.54322 24:0.665843 25:0.542756 26:0.554361 27:0.504666 28:0.438858 29:0.420162 30:0.525183 31:0.46727 
38.0488862307975 1:0.444653 2:0.264484 3:0.516906 4:0.552569 5:0.500121 6:0.492659 7:0.534714 8:0.374032 9:0.504728 10:0.457832 11:0.461256 12:0.450772 13:0.290804 14:0.699955 15:0.435787 16:0.700854 17:0.761258 18:0.233463 19:0.282224 20:0.284444 21:0.335166 22:0.734081 23:0.438042 24:0.611279 25:0.464776 26:0.360487 27:0.342216 28:0.530223 29:0.408679 30:0.587134 31:0.654373 
43.75002265707525 1:0.525557 2:0.606522 3:0.548605 4:0.594235 5:0.44375 6:0.42095 7:0.720898 8:0.288422 9:0.746158 10:0.77028 11:0.473112 12:0.620111 13:0.245392 14:0.735583 15:0.64256 16:0.751744 17:0.698456 18:0.725959 19:0.444716 20:0.300628 21:0.271331 22:0.697055 23:0.5 24:0.712841 25:0.642667 26:0.637909 27:0.588394 28:0.491783 29:0.356098 30:0.596856 31:0.327897 
128 1:0.514268 2:0.543678 3:0.521555 4:0.645609 5:0.348019 6:0.290977 7:0.707848 8:0.243579 9:0.709811 10:0.606176 11:0.547636 12:0.645587 13:0.140047 14:0.805443 15:0.612426 16:0.808734 17:0.787645 18:0.647582 19:0.428833 20:0.20657 21:0.188416 22:0.81414 23:0.320371 24:0.721603 25:0.70381 26:0.625241 27:0.572839 28:0.567131 29:0.328297 30:0.667494 31:0.386549 
74.19699176844499 1:0.665099 2:0.491331 3:0.506199 4:0.668011 5:0.249579 6:0.186103 7:0.82878 8:0.226254 9:0.779846 10:0.852171 11:0.554552 12:0.641091 13:0.0911337 14:0.878997 15:0.653465 16:0.924762 17:0.925567 18:0.765981 19:0.284667 20:0.170097 21:0.110986 22:0.924936 23:0.172577 24:0.759838 25:0.823217 26:0.744547 27:0.700527 28:0.639276 29:0.314034 30:0.690764 31:0.262363 
128 1:0.528065 2:0.442278 3:0.525641 4:0.62037 5:0.367436 6:0.304423 7:0.694797 8:0.29148 9:0.625887 10:0.600257 11:0.543119 12:0.611119 13:0.223355 14:0.702869 15:0.556034 16:0.705977 17:0.702498 18:0.581434 19:0.343311 20:0.298841 21:0.248853 22:0.722554 23:0.369837 24:0.676597 25:0.678999 26:0.597498 27:0.599216 28:0.505571 29:0.367219 30:0.588478 31:0.391187 
101.3270392702953 1:0.494512 2:0.497839 3:0.59876 4:0.556004 5:0.586143 6:0.543752 7:0.646946 8:0.468814 9:0.613771 10:0.745642 11:0.477911 12:0.593137 13:0.386572 14:0.678611 15:0.546276 16:0.637912 17:0.596911 18:0.609227 19:0.282224 20:0.366667 21:0.305731 22:0.674701 23:0.399557 24:0.589772 25:0.490253 26:0.554843 27:0.535642 28:0.465738 29:0.459326 30:0.493846 31:0.491808 
128 1:0.460646 2:0.520339 3:0.535362 4:0.611858 5:0.437654 6:0.372546 7:0.677397 8:0.316959 9:0.618794 10:0.624316 11:0.489485 12:0.590139 13:0.270621 14:0.627837 15:0.52834 16:0.577409 17:0.541087 18:0.682046 19:0.385461 20:0.403816 21:0.324021 22:0.614726 23:0.410639 24:0.623626 25:0.638901 26:0.627325 27:0.540511 28:0.425488 29:0.416777 30:0.529527 31:0.396499 
128 1:0.278771 2:0.494305 3:0.551282 4:0.540621 5:0.563715 6:0.535684 7:0.526014 8:0.511618 9:0.457447 10:0.558121 11:0.434721 12:0.480743 13:0.454021 14:0.495505 15:0.463337 16:0.576092 17:0.592069 18:0.463591 19:0.452046 20:0.556087 21:0.447638 22:0.535192 23:0.449829 24:0.438426 25:0.443731 26:0.41517 27:0.342621 28:0.381059 29:0.509489 30:0.453408 31:0.609112 
13.78287385883294 1:0.4619 2:0.642065 3:0.520851 4:0.603644 5:0.520742 6:0.459493 7:0.620846 8:0.347534 9:0.653073 10:0.61293 11:0.473959 12:0.608122 13:0.344043 14:0.600788 15:0.518008 16:0.591315 17:0.560076 18:0.693163 19:0.556506 20:0.408068 21:0.433856 22:0.578365 23:0.482168 24:0.632786 25:0.583296 26:0.59814 27:0.524009 28:0.409192 29:0.405294 30:0.488572 31:0.431211 
39.06326247636646 1:0.569144 2:0.63665 3:0.507326 4:0.61141 5:0.399196 6:0.341174 7:0.733948 8:0.221158 9:0.903664 10:0.75008 11:0.524206 12:0.739997 13:0.182371 14:0.769979 15:0.695509 16:0.738326 17:0.64633 18:0.901056 19:0.401344 20:0.262802 21:0.200244 22:0.717769 23:0.418094 24:0.8148 25:0.727736 26:0.782072 27:0.77925 28:0.497772 29:0.353922 30:0.604095 31:0.306501 
128 1:0.451239 2:0.512977 3:0.567343 4:0.594683 5:0.454212 6:0.43081 7:0.689577 8:0.362821 9:0.575946 10:0.763396 11:0.484545 12:0.587142 13:0.279889 14:0.712269 15:0.562634 16:0.714906 17:0.682021 18:0.659255 19:0.295052 20:0.352995 21:0.247702 22:0.718258 23:0.365908 24:0.63199 25:0.609659 26:0.592848 27:0.527932 28:0.497772 29:0.416173 30:0.58248 31:0.418867 
128 1:0.376293 2:0.616805 3:0.57481 4:0.564367 5:0.56507 6:0.532995 7:0.545154 8:0.459641 9:0.437352 10:0.554262 11:0.454622 12:0.552675 13:0.434868 14:0.582646 15:0.487875 16:0.586241 17:0.569609 18:0.446915 19:0.248015 20:0.465845 21:0.393382 22:0.597366 23:0.52438 24:0.521268 25:0.488259 26:0.517318 27:0.417152 28:0.416434 29:0.473105 30:0.488261 31:0.587866 
128 1:0.498589 2:0.506122 3:0.559031 4:0.592592 5:0.521796 6:0.458597 7:0.590395 8:0.429066 9:0.554078 10:0.586491 11:0.492166 12:0.560168 13:0.369478 14:0.610516 15:0.494045 16:0.617273 17:0.62082 18:0.542524 19:0.339035 20:0.417488 21:0.354581 22:0.645499 23:0.407314 24:0.563087 25:0.534116 26:0.532392 27:0.47545 28:0.448886 29:0.452677 30:0.492812 31:0.536022 
80.85825176847533 1:0.354029 2:0.485436 3:0.568329 4:0.590651 5:0.511711 6:0.449633 7:0.595615 8:0.48512 9:0.381501 10:0.515342 11:0.460268 12:0.467256 13:0.408403 14:0.515207 15:0.383556 16:0.492754 17:0.529876 18:0.432462 19:0.291998 20:0.516425 21:0.452133 22:0.569493 23:0.410135 24:0.457543 25:0.5144 26:0.501603 27:0.379007 28:0.394847 29:0.48338 30:0.448961 31:0.571332 
60.10840728395028 1:0.383192 2:0.551707 3:0.558467 4:0.576314 5:0.491842 6:0.462182 7:0.621716 8:0.354668 9:0.551123 10:0.546414 11:0.495695 12:0.605125 13:0.279683 14:0.686246 15:0.542115 16:0.648402 17:0.602021 18:0.608672 19:0.290165 20:0.347585 21:0.28055 22:0.665654 23:0.415978 24:0.650709 25:0.558706 26:0.546344 27:0.548357 28:0.464624 29:0.423547 30:0.578446 31:0.486122 
128 1:0.532769 2:0.372699 3:0.541138 4:0.59304 5:0.504486 6:0.444255 7:0.627806 8:0.37607 9:0.703605 10:0.688324 11:0.481581 12:0.548179 13:0.36402 14:0.593359 15:0.519587 16:0.588192 17:0.592679 18:0.594775 19:0.397068 20:0.414203 21:0.373018 22:0.612805 23:0.486097 24:0.631193 25:0.554719 26:0.594131 27:0.492493 28:0.432033 29:0.431645 30:0.469128 31:0.454851 
128 1:0.610223 2:0.378661 3:0.492956 4:0.582885 5:0.388509 6:0.325039 7:0.666957 8:0.266001 9:0.739953 10:0.697716 11:0.54933 12:0.597632 13:0.188446 14:0.784961 15:0.58301 16:0.751842 17:0.751382 18:0.428015 19:0.589493 20:0.202367 21:0.191975 22:0.799155 23:0.322285 24:0.673411 25:0.591272 26:0.499038 27:0.57568 28:0.559192 29:0.32878 30:0.633778 31:0.4259 
128 1:0.511132 2:0.55048 3:0.520569 4:0.637246 5:0.37135 6:0.324143 7:0.786149 8:0.281288 9:0.699173 10:0.674365 11:0.500071 12:0.614116 13:0.220678 14:0.765423 15:0.590328 16:0.804977 17:0.802402 18:0.762646 19:0.351252 20:0.26314 21:0.254646 22:0.779559 23:0.353113 24:0.685758 25:0.730173 26:0.711514 27:0.592858 28:0.546797 29:0.359966 30:0.600062 31:0.335229 
128 1:0.420822 2:0.590371 3:0.561003 4:0.567802 5:0.565145 6:0.516861 7:0.684357 8:0.411741 9:0.666371 10:0.68292 11:0.454905 12:0.588641 13:0.420348 14:0.574601 15:0.531353 16:0.555648 17:0.516721 18:0.773207 19:0.448992 20:0.458551 21:0.414496 22:0.554752 23:0.514104 24:0.608491 25:0.533673 26:0.663085 27:0.571081 28:0.388301 29:0.452436 30:0.44048 31:0.407421 
128 1:0.527752 2:0.420992 3:0.538462 4:0.621565 5:0.371877 6:0.337588 7:0.733948 8:0.259886 9:0.680556 10:0.654551 11:0.50614 12:0.599131 13:0.169499 14:0.803473 15:0.599369 16:0.810832 17:0.789857 18:0.69761 19:0.248626 20:0.218889 21:0.205903 22:0.800133 23:0.322083 24:0.751474 25:0.680771 26:0.644644 27:0.547274 28:0.562674 29:0.358516 30:0.638639 31:0.367023 
128 1:0.379743 2:0.511723 3:0.567343 4:0.597521 5:0.537675 6:0.48011 7:0.613886 8:0.405626 9:0.681442 10:0.533869 11:0.471701 12:0.606624 13:0.36505 14:0.624266 15:0.527909 16:0.579556 17:0.538608 18:0.790995 19:0.336591 20:0.39657 21:0.377045 22:0.616543 23:0.458594 24:0.588577 25:0.55206 26:0.661962 27:0.443392 28:0.415599 29:0.467062 30:0.469231 31:0.490761 
128 1:0.474757 2:0.651987 3:0.548323 4:0.591099 5:0.451803 6:0.387784 7:0.715677 8:0.342438 9:0.518617 10:0.559279 11:0.492449 12:0.623108 13:0.353208 14:0.644625 15:0.540393 16:0.635814 17:0.587111 18:0.652029 19:0.340868 20:0.37599 21:0.36483 22:0.621712 23:0.461213 24:0.622033 25:0.618299 26:0.673989 27:0.560395 28:0.432869 29:0.395141 30:0.505843 31:0.357971 
128 1:0.496394 2:0.422273 3:0.522119 4:0.607975 5:0.410485 6:0.340277 7:0.749608 8:0.284346 9:0.741135 10:0.691541 11:0.533663 12:0.629102 13:0.248893 14:0.712966 15:0.569953 16:0.6707 17:0.643851 18:0.759867 19:0.503971 20:0.307391 21:0.223016 22:0.723043 23:0.315837 24:0.677394 25:0.634914 26:0.690346 27:0.607196 28:0.49805 29:0.389943 30:0.559106 31:0.363956 
128 1:0.573973 2:0.435823 3:0.403776 4:0.479241 5:0.223719 6:0.188917 7:0.55542 8:0.222585 9:0.74273 10:0.575426 11:0.455328 12:0.512813 13:0.162022 14:0.750154 15:0.501507 16:0.708222 17:0.714928 18:0.729516 19:0.424191 20:0.208792 21:0.216085 22:0.784135 23:0.393814 24:0.511072 25:0.703841 26:0.548108 27:0.586501 28:0.427298 29:0.285749 30:0.583618 31:0.291689 
68.34587088774009 1:0.402948 2:0.28913 3:0.612708 4:0.564516 5:0.644846 6:0.622631 7:0.576475 8:0.493274 9:0.627364 10:0.54146 11:0.443754 12:0.488236 13:0.37473 14:0.713418 15:0.503515 16:0.693828 17:0.714547 18:0.463035 19:0.317654 20:0.311256 21:0.283654 22:0.745922 23:0.408422 24:0.513303 25:0.389012 26:0.421424 27:0.235223 28:0.523398 29:0.490028 30:0.523942 31:0.684896 
0.5219095800426187 1:0.711195 2:0.518152 3:0.55255 4:0.608274 5:0.416506 6:0.363583 7:0.706107 8:0.271097 9:0.760343 10:0.762817 11:0.521665 12:0.687547 13:0.226547 14:0.754956 15:0.650308 16:0.735838 17:0.657884 18:0.66259 19:0.246182 20:0.254396 21:0.242939 22:0.704635 23:0.508463 24:0.798072 25:0.691626 26:0.668858 27:0.673204 28:0.493733 29:0.332044 30:0.580205 31:0.305678 
128 1:0.51709 2:0.619672 3:0.564525 4:0.546744 5:0.553028 6:0.504312 7:0.622586 8:0.430086 9:0.559397 10:0.697459 11:0.483416 12:0.630601 13:0.396973 14:0.673439 15:0.55302 16:0.629471 17:0.566521 18:0.516954 19:0.257178 20:0.367246 21:0.3353 22:0.648783 23:0.459097 24:0.6065 25:0.516615 26:0.581943 27:0.581631 28:0.448189 29:0.430074 30:0.499845 31:0.472357 
4.434653544220216 1:0.341674 2:0.219979 3:0.225416 4:0.276284 5:0.195813 6:0.196017 7:0.230381 8:0.211578 9:0.505792 10:0.182309 11:0.296401 12:0.282332 13:0.215385 14:0.681566 15:0.271345 16:0.709441 17:0.774223 18:0.466148 19:0.292364 20:0.173188 21:0.305543 22:0.754794 23:0.289744 24:0.3148 25:0.594608 26:0.228351 27:0.245638 28:0.293036 29:0.218421 30:0.488675 31:0.399716 
128 1:0.588272 2:0.496706 3:0.495774 4:0.584827 5:0.393401 6:0.352826 7:0.729598 8:0.25479 9:0.668144 10:0.515793 11:0.502894 12:0.606624 13:0.266502 14:0.714321 15:0.582149 16:0.789558 17:0.779104 18:0.610339 19:0.455712 20:0.26087 21:0.321171 22:0.69227 23:0.510075 24:0.72678 25:0.652415 26:0.605516 27:0.589341 28:0.501253 29:0.323945 30:0.574516 31:0.333957 
128 1:0.590467 2:0.497533 3:0.513948 4:0.609468 5:0.33801 6:0.304423 7:0.771359 8:0.227273 9:0.676123 10:0.667546 11:0.529711 12:0.677057 13:0.181032 14:0.820383 15:0.622901 16:0.822932 17:0.777235 18:0.662034 19:0.17471 20:0.193527 21:0.187426 22:0.794579 23:0.409631 24:0.796479 25:0.747674 26:0.708306 27:0.698904 28:0.558774 29:0.321407 30:0.642259 31:0.313159 
102.9263694442079 1:0.425525 2:0.535956 3:0.550155 4:0.617085 5:0.412743 6:0.369857 7:0.689577 8:0.358744 9:0.554078 10:0.725571 11:0.490473 12:0.537689 13:0.245289 14:0.729467 15:0.521883 16:0.700415 17:0.718208 18:0.476932 19:0.408064 20:0.322609 21:0.242832 22:0.775403 23:0.328632 24:0.535606 25:0.619628 26:0.550994 27:0.45002 28:0.533008 29:0.395262 30:0.611128 31:0.47924 
64.98607496179756 1:0.275321 2:0.510456 3:0.561003 4:0.552569 5:0.533009 6:0.513275 7:0.602575 8:0.453526 9:0.54344 10:0.597105 11:0.442625 12:0.507718 13:0.353929 14:0.562821 15:0.479409 16:0.559307 17:0.553022 18:0.511395 19:0.474038 20:0.471111 21:0.408488 22:0.562786 23:0.482168 24:0.52326 25:0.494683 26:0.458948 27:0.427567 28:0.398886 29:0.452073 30:0.50605 31:0.539987 
128 1:0.523675 2:0.503614 3:0.566638 4:0.575567 5:0.50727 6:0.463975 7:0.623456 8:0.350591 9:0.588948 10:0.652043 11:0.478758 12:0.579649 13:0.334672 14:0.668309 15:0.558473 16:0.664064 17:0.628217 18:0.596443 19:0.389737 20:0.352222 21:0.324556 22:0.654965 23:0.4459 24:0.647921 25:0.528578 26:0.554522 27:0.464358 28:0.460306 29:0.412426 30:0.52901 31:0.446248 
128 1:0.44873 2:0.318645 3:0.483094 4:0.615591 5:0.388735 6:0.354619 7:0.727858 8:0.240522 9:0.765071 10:0.653329 11:0.48765 12:0.549678 13:0.167748 14:0.724418 15:0.515856 16:0.696463 17:0.711916 18:0.684269 19:0.514966 20:0.258696 21:0.312193 22:0.716476 23:0.361979 24:0.740322 25:0.664821 26:0.598781 27:0.540105 28:0.513928 29:0.347516 30:0.596546 31:0.378395 
99.58987777747996 1:0.162747 2:0.451387 3:0.542547 4:0.526583 5:0.626708 6:0.610082 7:0.412911 8:0.481044 9:0.422872 10:0.464008 11:0.414538 12:0.429792 13:0.449181 14:0.364405 15:0.37882 16:0.363894 17:0.366711 18:0.54975 19:0.55223 20:0.701063 21:0.49036 22:0.38468 23:0.502015 24:0.451569 25:0.355339 26:0.348942 27:0.326796 28:0.274373 29:0.571014 30:0.430137 31:0.68699 
103.7292481049373 1:0.314519 2:0.390624 3:0.54466 4:0.568847 5:0.477317 6:0.449633 7:0.536454 8:0.438239 9:0.542849 10:0.660276 11:0.468878 12:0.456766 13:0.285964 14:0.590732 15:0.465346 16:0.603513 17:0.648503 18:0.388549 19:0.588882 20:0.464299 21:0.296003 22:0.663733 23:0.329639 24:0.461526 25:0.476961 26:0.360327 27:0.335858 28:0.46142 29:0.464886 30:0.569656 31:0.65557 
128 1:0.521794 2:0.432182 3:0.427304 4:0.512694 5:0.203595 6:0.176691 7:0.570384 8:0.221158 9:0.70922 10:0.506465 11:0.478052 12:0.551176 13:0.112965 14:0.817674 15:0.540824 16:0.787997 17:0.774681 18:0.832129 19:0.23763 20:0.175942 21:0.161643 22:0.848161 23:0.287931 24:0.563087 25:0.726296 26:0.604233 27:0.581496 28:0.485933 29:0.325396 30:0.641535 31:0.321837 
128 1:0.417686 2:0.496826 3:0.549873 4:0.545101 5:0.519312 6:0.492659 7:0.586045 8:0.389319 9:0.596927 10:0.642586 11:0.463797 12:0.561666 13:0.341983 14:0.589993 15:0.532501 16:0.5798 17:0.543489 18:0.596443 19:0.353696 20:0.443816 21:0.36012 22:0.571309 23:0.483175 24:0.638761 25:0.515286 26:0.523092 27:0.551062 28:0.404457 29:0.447117 30:0.510394 31:0.48732 
128 1:0.460959 2:0.472726 3:0.573824 4:0.579749 5:0.487552 6:0.472042 7:0.676527 8:0.379128 9:0.599882 10:0.70936 11:0.46789 12:0.581148 13:0.282772 14:0.727373 15:0.560482 16:0.733594 17:0.704938 18:0.670928 19:0.23763 20:0.32599 21:0.257095 22:0.725872 23:0.371449 24:0.655488 25:0.581967 26:0.578897 27:0.512512 28:0.507939 29:0.427173 30:0.573586 31:0.469814 
128 1:0.572907 2:0.494959 3:0.543815 4:0.562126 5:0.509829 6:0.473835 7:0.656516 8:0.417856 9:0.727246 10:0.778707 11:0.474383 12:0.603626 13:0.372464 14:0.623815 15:0.575979 16:0.690315 17:0.670467 18:0.638688 19:0.383018 20:0.395217 21:0.375962 22:0.621433 23:0.513399 24:0.667437 25:0.581524 26:0.587235 27:0.614771 28:0.444011 29:0.406503 30:0.480918 31:0.421261 
128 1:0.308561 2:0.438624 3:0.505917 4:0.515083 5:0.521269 6:0.521342 7:0.600835 8:0.415817 9:0.544917 10:0.563268 11:0.446577 12:0.509216 13:0.374833 14:0.637565 15:0.495623 16:0.691437 17:0.705358 18:0.470817 19:0.406231 20:0.385652 21:0.37833 22:0.646652 23:0.431997 24:0.584196 25:0.470315 26:0.463919 27:0.481672 28:0.467827 29:0.441073 30:0.533561 31:0.545971 
107.3154573406247 1:0.460646 2:0.682769 3:0.589603 4:0.571535 5:0.537073 6:0.511482 7:0.706977 8:0.467795 9:0.462175 10:0.670827 11:0.445166 12:0.548179 13:0.404284 14:0.666585 15:0.527335 16:0.702659 17:0.688961 18:0.5403 19:0.270617 20:0.393188 21:0.361311 22:0.669251 23:0.486299 24:0.500558 25:0.5607 26:0.54458 27:0.498444 28:0.467827 29:0.430557 30:0.517116 31:0.429939 
47.67962426184789 1:0.536532 2:0.690771 3:0.546774 4:0.61126 5:0.433741 6:0.400333 7:0.692187 8:0.308806 9:0.586879 10:0.677646 11:0.492872 12:0.6321 13:0.255792 14:0.702664 15:0.59162 16:0.729934 17:0.679809 18:0.727626 19:0.310935 20:0.352995 21:0.275318 22:0.680708 23:0.449829 24:0.675801 25:0.677669 26:0.616421 27:0.638171 28:0.475627 29:0.383174 30:0.594994 31:0.349143 
128 1:0.476011 2:0.518778 3:0.537194 4:0.59543 5:0.457297 6:0.413779 7:0.639986 8:0.3404 9:0.627955 10:0.639112 11:0.504164 12:0.591638 13:0.283287 14:0.677667 15:0.549863 16:0.678117 17:0.654681 18:0.579767 19:0.407453 20:0.343188 21:0.309664 22:0.67725 23:0.430385 24:0.659073 25:0.587062 26:0.563182 27:0.537806 28:0.475348 29:0.388009 30:0.565415 31:0.432333 
128 1:0.247413 2:0.540171 3:0.573542 4:0.517623 5:0.652222 6:0.631595 7:0.493823 8:0.567672 9:0.394504 10:0.527308 11:0.429922 12:0.477746 13:0.548759 14:0.468949 15:0.439948 16:0.509929 17:0.506158 18:0.361312 19:0.373244 20:0.584638 21:0.490734 22:0.489329 23:0.567197 24:0.408157 25:0.360877 26:0.393682 27:0.341134 28:0.347214 29:0.526532 30:0.417727 31:0.61966 
123.1814673144108 1:0.761994 2:0.37626 3:0.533108 4:0.631571 5:0.373006 6:0.299941 7:0.722638 8:0.197717 9:0.808806 10:0.644066 11:0.55314 12:0.663569 13:0.175265 14:0.771949 15:0.617018 16:0.724811 17:0.687588 18:0.656476 19:0.318265 20:0.197874 21:0.201595 22:0.748856 23:0.479146 24:0.835909 25:0.699158 26:0.683611 27:0.653726 28:0.525209 29:0.311737 30:0.596856 31:0.325054 
128 1:0.459705 2:0.384089 3:0.477459 4:0.623954 5:0.279532 6:0.238988 7:0.834 8:0.171219 9:0.787234 10:0.695593 11:0.520395 12:0.576652 13:0.0788796 14:0.86225 15:0.599369 16:0.83191 17:0.844881 18:0.7204 19:0.477092 20:0.141932 21:0.161549 22:0.871459 23:0.220431 24:0.760236 25:0.730173 26:0.693553 27:0.620181 28:0.612674 29:0.309803 30:0.693763 31:0.296402 
45.49672652444141 1:0.328316 2:0.28893 3:0.439701 4:0.444743 5:0.602926 6:0.633388 7:0.458152 8:0.389319 9:0.594267 10:0.47578 11:0.416655 12:0.429792 13:0.403254 14:0.581989 15:0.435357 16:0.645865 17:0.69388 18:0.266815 19:0.660354 20:0.386087 21:0.473902 22:0.569912 23:0.554201 24:0.621635 25:0.314798 26:0.251604 27:0.434735 28:0.436629 29:0.426206 30:0.522081 31:0.652502 
60.50188176528411 1:0.251176 2:0.353028 3:0.546069 4:0.591398 5:0.465802 6:0.435292 7:0.656516 8:0.37607 9:0.59279 10:0.591444 11:0.464644 12:0.518208 13:0.283699 14:0.637155 15:0.498493 16:0.647426 17:0.656206 18:0.67204 19:0.502749 20:0.398744 21:0.311257 22:0.665863 23:0.296998 24:0.556715 25:0.548737 26:0.535439 27:0.349114 28:0.467827 29:0.458117 30:0.544524 31:0.523378 
82.72694513120753 1:0.355597 2:0.631502 3:0.601578 4:0.49776 5:0.691658 6:0.67462 7:0.464242 8:0.569711 9:0.268913 10:0.50743 11:0.426958 12:0.519706 13:0.560704 14:0.516603 15:0.42072 16:0.488022 17:0.448236 18:0.281267 19:0.122786 20:0.525604 21:0.506536 22:0.495791 23:0.601451 24:0.48144 25:0.343155 26:0.395766 27:0.408089 28:0.350418 29:0.511785 30:0.416279 31:0.637989 
128 1:0.510818 2:0.518818 3:0.519442 4:0.596625 5:0.412743 6:0.354619 7:0.775709 8:0.343457 9:0.721336 10:0.690125 11:0.512491 12:0.609621 13:0.300381 14:0.68444 15:0.569953 16:0.715638 17:0.715577 18:0.674819 19:0.452046 20:0.317729 21:0.322482 22:0.695204 23:0.425851 24:0.656285 25:0.663934 26:0.670462 27:0.663601 28:0.49039 29:0.363713 30:0.530975 31:0.327074 
8.946508997210934 1:0.301976 2:0.529221 3:0.547619 4:0.598716 5:0.432537 6:0.389577 7:0.634766 8:0.370974 9:0.476064 10:0.493213 11:0.489767 12:0.5257 13:0.283802 14:0.661782 15:0.515999 16:0.713296 17:0.715615 18:0.585325 19:0.488699 20:0.38343 21:0.303576 22:0.699291 23:0.282793 24:0.538394 25:0.54342 26:0.510904 27:0.355066 28:0.488022 29:0.429953 30:0.584549 31:0.498691 
128 1:0.697397 2:0.319765 3:0.509158 4:0.592294 5:0.413571 6:0.360894 7:0.726988 8:0.251733 9:0.801123 10:0.728273 11:0.524347 12:0.614116 13:0.225415 14:0.788244 15:0.581862 16:0.756136 17:0.748942 18:0.579767 19:0.346365 20:0.170097 21:0.273405 22:0.770932 23:0.424441 24:0.819978 25:0.63735 26:0.636786 27:0.649398 28:0.550139 29:0.31488 30:0.574413 31:0.33852 
128 1:0.686736 2:0.565017 3:0.526768 4:0.641428 5:0.357276 6:0.301734 7:0.781799 8:0.225235 9:0.759752 10:0.750402 11:0.542696 12:0.659074 13:0.150448 14:0.843985 15:0.637968 16:0.839619 17:0.818723 18:0.711506 19:0.386072 20:0.174638 21:0.153989 22:0.844354 23:0.358755 24:0.749881 25:0.742357 26:0.669981 27:0.696064 28:0.587326 29:0.311737 30:0.661082 31:0.298422 
128 1:0.38476 2:0.495132 3:0.539307 4:0.669803 5:0.348696 6:0.282014 7:0.765269 8:0.316959 9:0.625591 10:0.589193 11:0.516302 12:0.552675 13:0.205643 14:0.745803 15:0.539102 16:0.756526 17:0.785586 18:0.612563 19:0.432499 20:0.283382 21:0.247408 22:0.802787 23:0.288032 24:0.565875 25:0.698051 26:0.65202 27:0.413093 28:0.554317 29:0.37157 30:0.615058 31:0.402259 
128 1:0.520853 2:0.285049 3:0.566638 4:0.614098 5:0.486122 6:0.458597 7:0.635636 8:0.333265 9:0.686761 10:0.535027 11:0.483133 12:0.5257 13:0.217176 14:0.78808 15:0.540537 16:0.769993 17:0.788789 18:0.535297 19:0.229078 20:0.22029 21:0.21654 22:0.810088 23:0.387165 24:0.677792 25:0.554054 26:0.51764 27:0.371838 28:0.571309 29:0.405053 30:0.616403 31:0.552854 
128 1:0.47068 2:0.495412 3:0.514793 4:0.583184 5:0.416205 6:0.385992 7:0.710458 8:0.295557 9:0.654846 10:0.710582 11:0.487086 12:0.579649 13:0.283699 14:0.66876 15:0.556321 16:0.659088 17:0.6453 18:0.5592 19:0.412951 20:0.339565 21:0.325051 22:0.653044 23:0.519444 24:0.670225 25:0.64156 26:0.60728 27:0.605708 28:0.464067 29:0.361054 30:0.560658 31:0.348844 
128 1:0.637504 2:0.462283 3:0.539589 4:0.639187 5:0.406346 6:0.353723 7:0.653906 8:0.263963 9:0.731383 10:0.651721 11:0.523924 12:0.626105 13:0.179899 14:0.733079 15:0.586454 16:0.731544 17:0.715882 18:0.692051 19:0.319487 20:0.284444 21:0.212125 22:0.74194 23:0.410437 24:0.744305 25:0.686309 26:0.605035 27:0.59394 28:0.518663 29:0.371691 30:0.611025 31:0.433306 
128 1:0.379429 2:0.509869 3:0.555931 4:0.553315 5:0.565823 6:0.538373 7:0.572125 8:0.462699 9:0.523936 10:0.558057 11:0.450106 12:0.531695 13:0.412007 14:0.60284 15:0.494332 16:0.650598 17:0.653193 18:0.521957 19:0.367746 20:0.433043 21:0.391041 22:0.624122 23:0.44731 24:0.536801 25:0.472973 26:0.485407 27:0.407412 28:0.442618 29:0.470446 30:0.49033 31:0.581432 
38.50830375725433 1:0.203826 2:0.44864 3:0.530149 4:0.50672 5:0.608044 6:0.566161 7:0.511223 8:0.57073 9:0.375591 10:0.518302 11:0.435145 12:0.45227 13:0.52631 14:0.433321 15:0.358014 16:0.452891 17:0.485415 18:0.378544 19:0.473427 20:0.591642 21:0.555426 22:0.475916 23:0.40006 24:0.40975 25:0.369074 26:0.397851 27:0.374679 28:0.34039 29:0.529796 30:0.379874 31:0.647864 
128 1:0.579806 2:0.43677 3:0.471964 4:0.58184 5:0.372178 6:0.324143 7:0.706977 8:0.241541 9:0.727246 10:0.724413 11:0.531687 12:0.605125 13:0.186181 14:0.788286 15:0.561343 16:0.763162 17:0.764538 18:0.586993 19:0.480758 20:0.203865 21:0.242497 22:0.793217 23:0.290852 24:0.765414 25:0.635357 26:0.601187 27:0.68903 28:0.560167 29:0.326726 30:0.624884 31:0.375327 
128 1:0.354343 2:0.458656 3:0.536067 4:0.533901 5:0.53331 6:0.497141 7:0.515573 8:0.440277 9:0.455674 10:0.500611 11:0.467467 12:0.476247 13:0.398002 14:0.561754 15:0.477544 16:0.607465 17:0.627455 18:0.354641 19:0.514966 20:0.463816 21:0.38308 22:0.596458 23:0.425146 24:0.475864 25:0.417147 26:0.360969 27:0.359124 28:0.424095 29:0.467545 30:0.511842 31:0.592279 
128 1:0.571025 2:0.505615 3:0.538321 4:0.623208 5:0.392122 6:0.329521 7:0.685227 8:0.362821 9:0.570035 10:0.745577 11:0.517996 12:0.572156 13:0.2699 14:0.736609 15:0.533505 16:0.753745 17:0.776168 18:0.484158 19:0.315822 20:0.300435 21:0.256131 22:0.797408 23:0.297401 24:0.595348 25:0.646876 26:0.591886 27:0.515488 28:0.550557 29:0.381361 30:0.582997 31:0.45156 
128 1:0.499216 2:0.369112 3:0.528177 4:0.614098 5:0.457072 6:0.395852 7:0.663477 8:0.35161 9:0.796395 10:0.64175 11:0.499224 12:0.575153 13:0.249614 14:0.678036 15:0.555603 16:0.676604 17:0.684499 18:0.71373 19:0.36347 20:0.33971 21:0.28162 22:0.705683 23:0.348983 24:0.667437 25:0.618742 26:0.617383 27:0.553632 28:0.494568 29:0.427777 30:0.539663 31:0.47318 
128 1:0.505488 2:0.418885 3:0.533671 4:0.592443 5:0.486348 6:0.45053 7:0.608665 8:0.301672 9:0.68026 10:0.588935 11:0.507551 12:0.587142 13:0.275564 14:0.658088 15:0.544985 16:0.613955 17:0.584404 18:0.57254 19:0.327428 20:0.348696 21:0.292083 22:0.637081 23:0.538485 24:0.710451 25:0.575543 26:0.548108 27:0.578385 28:0.450418 29:0.397196 30:0.563864 31:0.433979 
128 1:0.268109 2:0.497359 3:0.53818 4:0.594086 5:0.477693 6:0.428121 7:0.589525 8:0.397472 9:0.489657 10:0.519009 11:0.477064 12:0.524202 13:0.32386 14:0.595411 15:0.479696 16:0.604196 17:0.604881 18:0.577543 19:0.458766 20:0.449662 21:0.355156 22:0.627406 23:0.314628 24:0.512506 25:0.531901 26:0.506575 27:0.368998 28:0.436908 29:0.468633 30:0.531286 31:0.537817 
128 1:0.406083 2:0.452947 3:0.563257 4:0.569444 5:0.509152 6:0.486384 7:0.658257 8:0.364859 9:0.657506 10:0.605404 11:0.456457 12:0.566162 13:0.326434 14:0.641793 15:0.565217 16:0.672798 17:0.642135 18:0.765425 19:0.35675 20:0.395652 21:0.319204 22:0.630969 23:0.44318 24:0.661463 25:0.54342 26:0.603592 27:0.487353 28:0.447354 29:0.448447 30:0.522391 31:0.457096 
128 1:0.403888 2:0.572886 3:0.543534 4:0.596923 5:0.482133 6:0.429017 7:0.603445 8:0.31594 9:0.588948 10:0.572789 11:0.493296 12:0.605125 13:0.32386 14:0.619833 15:0.559765 16:0.606002 17:0.563508 18:0.643135 19:0.464264 20:0.408647 21:0.321492 22:0.608858 23:0.463127 24:0.611678 25:0.568897 26:0.582905 27:0.475179 28:0.424373 29:0.428381 30:0.535009 31:0.449764 
20.93812182686665 1:0.390404 2:0.271899 3:0.62257 4:0.560932 5:0.658845 6:0.643248 7:0.539934 8:0.513657 9:0.619976 10:0.552589 11:0.431616 12:0.467256 13:0.38338 14:0.683044 15:0.491319 16:0.661869 17:0.688503 18:0.394108 19:0.329872 20:0.341932 21:0.301181 22:0.719096 23:0.458694 24:0.490601 25:0.368409 26:0.379089 27:0.186122 28:0.505432 29:0.496072 30:0.516806 31:0.729708 
128 1:0.516463 2:0.341291 3:0.533671 4:0.605137 5:0.396111 6:0.364479 7:0.694797 8:0.286384 9:0.76448 10:0.739016 11:0.501905 12:0.546681 13:0.1488 14:0.80179 15:0.577127 16:0.773847 17:0.783184 18:0.600889 19:0.423946 20:0.222802 21:0.178729 22:0.826714 23:0.289744 24:0.710451 25:0.606114 26:0.565426 27:0.507372 28:0.577716 29:0.365043 30:0.652601 31:0.45762 
128 1:0.398557 2:0.316978 3:0.493378 4:0.572879 5:0.437052 6:0.398541 7:0.574735 8:0.374032 9:0.496454 10:0.550016 11:0.492308 12:0.453769 13:0.298322 14:0.650289 15:0.422729 16:0.646255 17:0.714166 18:0.251807 19:0.438607 20:0.347923 21:0.349777 22:0.713472 23:0.352811 24:0.549546 25:0.505981 26:0.411161 27:0.388882 28:0.506407 29:0.403723 30:0.568932 31:0.576345 
128 1:0.363437 2:0.421192 3:0.530572 4:0.582437 5:0.516 6:0.471146 7:0.626936 8:0.431105 9:0.606087 10:0.585462 11:0.469301 12:0.53619 13:0.367727 14:0.596478 15:0.491175 16:0.644108 17:0.653918 18:0.6398 19:0.423335 20:0.431643 21:0.391977 22:0.623878 23:0.367419 24:0.562291 25:0.538325 26:0.539288 27:0.444339 28:0.442618 29:0.46271 30:0.484538 31:0.502581 
128 1:0.554719 2:0.609643 3:0.5541 4:0.599612 5:0.45075 6:0.400333 7:0.632156 8:0.311863 9:0.59013 10:0.560502 11:0.505152 12:0.645587 13:0.318814 14:0.643804 15:0.592768 16:0.665821 17:0.603737 18:0.603669 19:0.294441 20:0.378454 21:0.312287 22:0.615634 23:0.570623 24:0.681376 25:0.625388 26:0.62075 27:0.553767 28:0.431755 29:0.385108 30:0.542662 31:0.396424 
128 1:0.404202 2:0.407122 3:0.538884 4:0.585573 5:0.497712 6:0.436188 7:0.586045 8:0.36384 9:0.624409 10:0.50981 11:0.479323 12:0.557171 13:0.324889 14:0.583754 15:0.519156 16:0.576921 17:0.548713 18:0.584213 19:0.474038 20:0.421014 21:0.381608 22:0.572566 23:0.438948 24:0.598534 25:0.528578 26:0.522771 27:0.388746 28:0.405292 29:0.438414 30:0.494467 31:0.489714 
89.14240785643595 1:0.687784 2:0.419383 3:0.558529 4:0.678829 5:0.308157 6:0.253361 7:0.747596 8:0.323424 9:0.70873 10:0.628526 11:0.586794 12:0.629617 13:0.198779 14:0.797662 15:0.599575 16:0.823539 17:0.843754 18:0.642214 19:0.32214 20:0.221712 21:0.275806 22:0.835322 23:0.408869 24:0.692267 25:0.694735 26:0.686888 27:0.588048 28:0.610646 29:0.378513 30:0.646441 31:0.390846 
128 1:0.430229 2:0.620365 3:0.520569 4:0.589904 5:0.47265 6:0.447841 7:0.586915 8:0.302691 9:0.578605 10:0.650627 11:0.474383 12:0.609621 13:0.307383 14:0.639248 15:0.540106 16:0.635765 17:0.601106 18:0.602557 19:0.419059 20:0.397488 21:0.33538 22:0.625799 23:0.509974 24:0.660666 25:0.598139 26:0.581943 27:0.526309 28:0.440668 29:0.403965 30:0.560864 31:0.479988 
126.4802675887529 1:0.542803 2:0.601427 3:0.535785 4:0.657109 5:0.327473 6:0.282014 7:0.708718 8:0.199755 9:0.769504 10:0.717144 11:0.543261 12:0.704031 13:0.0880445 14:0.774781 15:0.655761 16:0.757551 17:0.693537 18:0.807671 19:0.385461 20:0.260097 21:0.154511 22:0.751336 23:0.387367 24:0.793293 25:0.783562 26:0.677517 27:0.681185 28:0.520195 29:0.330473 30:0.677319 31:0.344356 
10.73143075297611 1:0.331452 2:0.722939 3:0.537616 4:0.560185 5:0.497637 6:0.454115 7:0.686097 8:0.441296 9:0.375295 10:0.520939 11:0.446719 12:0.548179 13:0.44568 14:0.555679 15:0.463194 16:0.592632 17:0.580782 18:0.51751 19:0.356139 20:0.463527 21:0.512597 22:0.541968 23:0.507959 24:0.508125 25:0.571334 26:0.576171 27:0.515488 28:0.387465 29:0.421492 30:0.454442 31:0.398668 
128 1:0.594857 2:0.417952 3:0.545647 4:0.584677 5:0.465501 6:0.441566 7:0.680007 8:0.286384 9:0.801714 10:0.76835 11:0.494989 12:0.617114 13:0.191844 14:0.786849 15:0.616731 16:0.74262 17:0.701849 18:0.719844 19:0.298106 20:0.242947 21:0.188951 22:0.76199 23:0.395023 24:0.778955 25:0.610767 26:0.60279 27:0.646693 28:0.534401 29:0.382932 30:0.617644 31:0.418493 
114.8997755409153 1:0.366259 2:0.451427 3:0.502958 4:0.599313 5:0.371801 6:0.334003 7:0.614755 8:0.357725 9:0.588357 10:0.711161 11:0.500071 12:0.51521 13:0.202863 14:0.644091 15:0.509973 16:0.694316 17:0.724652 18:0.528071 19:0.598656 20:0.410918 21:0.269618 22:0.706102 23:0.241286 24:0.547555 25:0.609437 26:0.447723 27:0.470851 28:0.492897 29:0.411338 30:0.614748 31:0.511109 
111.4798420134048 1:0.301599 2:0.549293 3:0.536489 4:0.480585 5:0.644831 6:0.644843 7:0.439534 8:0.530779 9:0.448818 10:0.541718 11:0.424559 12:0.508916 13:0.513212 14:0.503797 15:0.445258 16:0.510808 17:0.497502 18:0.368983 19:0.410385 20:0.531643 21:0.511955 22:0.492647 23:0.599536 24:0.465031 25:0.34953 26:0.366902 27:0.433248 28:0.354596 29:0.515653 30:0.442341 31:0.658038 
128 1:0.54688 2:0.699573 3:0.517188 4:0.554958 5:0.481606 6:0.469353 7:0.629546 8:0.329189 9:0.632979 10:0.608749 11:0.474524 12:0.636595 13:0.351766 14:0.656569 15:0.620749 16:0.799122 17:0.760114 18:0.718177 19:0.434942 20:0.380193 21:0.335099 22:0.637815 23:0.549567 24:0.704078 25:0.591715 26:0.58467 27:0.63736 28:0.460724 29:0.388614 30:0.554762 31:0.410414 
38.43220069755449 1:0.353716 2:0.447546 3:0.559735 4:0.549731 5:0.584262 6:0.555404 7:0.606055 8:0.421932 9:0.603428 10:0.514249 11:0.447142 12:0.530196 13:0.359489 14:0.631285 15:0.495767 16:0.592584 17:0.570067 18:0.519733 19:0.466707 20:0.381498 21:0.375333 22:0.607636 23:0.492444 24:0.55791 25:0.451706 26:0.469852 27:0.383877 28:0.430919 29:0.445062 30:0.507808 31:0.548216 
128 1:0.397303 2:0.606348 3:0.513666 4:0.654271 5:0.318066 6:0.256915 7:0.80616 8:0.302691 9:0.567671 10:0.608877 11:0.499929 12:0.552675 13:0.190197 14:0.729959 15:0.523461 16:0.779312 17:0.81346 18:0.72318 19:0.513134 20:0.310725 21:0.276362 22:0.781934 23:0.221439 24:0.562291 25:0.738148 26:0.652501 27:0.50656 28:0.543454 29:0.36746 30:0.615989 31:0.359168 
50.57583846564678 1:0.627156 2:0.512043 3:0.568329 4:0.651284 5:0.352911 6:0.282014 7:0.706977 8:0.257848 9:0.645686 10:0.652042 11:0.55427 12:0.65308 13:0.177737 14:0.7504 15:0.595207 16:0.706611 17:0.675348 18:0.615898 19:0.243128 20:0.260048 21:0.188349 22:0.758322 23:0.407213 24:0.729568 25:0.720647 26:0.66084 27:0.608954 28:0.521448 29:0.345099 30:0.617437 31:0.37443 
60.07792137241717 1:0.513641 2:0.488317 3:0.513525 4:0.551075 5:0.511033 6:0.472939 7:0.645206 8:0.287403 9:0.756797 10:0.5578 11:0.482004 12:0.660572 13:0.366389 14:0.632886 15:0.610274 16:0.64689 17:0.576282 18:0.641467 19:0.450214 20:0.332222 21:0.39658 22:0.556045 23:0.6622 24:0.756651 25:0.56934 26:0.633739 27:0.583254 28:0.407103 29:0.367098 30:0.486813 31:0.364854 
128 1:0.370963 2:0.591158 3:0.551846 4:0.550179 5:0.576284 6:0.537477 7:0.544284 8:0.398492 9:0.494976 10:0.490318 11:0.462103 12:0.584145 13:0.425497 14:0.538891 15:0.49304 16:0.532471 17:0.487207 18:0.600334 19:0.403787 20:0.477826 21:0.439971 22:0.510147 23:0.539895 24:0.602517 25:0.476074 26:0.52694 27:0.477479 28:0.363231 29:0.463193 30:0.45982 31:0.520536 
119.0767715527436 1:0.420916 2:0.330915 3:0.485207 4:0.473865 5:0.432108 6:0.424562 7:0.466504 8:0.328475 9:0.609427 10:0.493084 11:0.415949 12:0.464708 13:0.29619 14:0.678816 15:0.486583 16:0.643962 17:0.640267 18:0.503224 19:0.349603 20:0.298309 21:0.306761 22:0.684271 23:0.487004 24:0.509041 25:0.49181 26:0.419339 27:0.334506 28:0.414345 29:0.389218 30:0.538835 31:0.500561 
128 1:0.345563 2:0.450053 3:0.430121 4:0.540024 5:0.443675 6:0.421846 7:0.609535 8:0.30371 9:0.669622 10:0.537986 11:0.465773 12:0.522703 13:0.300381 14:0.624061 15:0.494762 16:0.669432 17:0.699905 18:0.414675 19:0.74099 20:0.355411 21:0.407391 22:0.623983 23:0.487105 24:0.600526 25:0.540541 26:0.45542 27:0.493034 28:0.457799 29:0.365406 30:0.558796 31:0.494501 
128 1:0.484791 2:0.368578 3:0.512539 4:0.602897 5:0.362168 6:0.314283 7:0.729598 8:0.272116 9:0.595449 10:0.554005 11:0.515737 12:0.594635 13:0.218515 14:0.776136 15:0.536806 16:0.757063 17:0.752145 18:0.510839 19:0.271228 20:0.207874 21:0.265511 22:0.776031 23:0.345255 24:0.706866 25:0.657953 26:0.627646 27:0.504396 28:0.548329 29:0.34389 30:0.600889 31:0.406374 
128 1:0.536532 2:0.463457 3:0.497464 4:0.584528 5:0.496207 6:0.444255 7:0.626936 8:0.273135 9:0.835106 10:0.685815 11:0.495131 12:0.639592 13:0.265987 14:0.6986 15:0.583728 16:0.648939 17:0.606025 18:0.676487 19:0.563836 20:0.299613 21:0.29987 22:0.666038 23:0.464135 24:0.728374 25:0.578201 26:0.612412 27:0.574192 28:0.470056 29:0.380757 30:0.547523 31:0.446622 
128 1:0.651301 2:0.435436 3:0.494787 4:0.611111 5:0.342224 6:0.288288 7:0.704367 8:0.231349 9:0.705969 10:0.734513 11:0.538885 12:0.608122 13:0.139327 14:0.850716 15:0.584589 16:0.829471 17:0.831344 18:0.502501 19:0.46182 20:0.157053 21:0.160853 22:0.872786 23:0.266371 24:0.724391 25:0.660833 26:0.57601 27:0.574868 28:0.608357 29:0.310891 30:0.67463 31:0.415127 
41.14749783389492 1:0.594857 2:0.577634 3:0.534799 4:0.562724 5:0.528268 6:0.507001 7:0.579955 8:0.287403 9:0.704492 10:0.770794 11:0.479887 12:0.626105 13:0.314592 14:0.658909 15:0.608122 16:0.636009 17:0.566787 18:0.65592 19:0.466097 20:0.401159 21:0.24231 22:0.623494 23:0.575257 24:0.688944 25:0.544307 26:0.555965 27:0.605844 28:0.434262 29:0.414481 30:0.568311 31:0.438318 
128 1:0.591408 2:0.429594 3:0.537616 4:0.600358 5:0.430956 6:0.388681 7:0.646076 8:0.258867 9:0.651596 10:0.608234 11:0.503035 12:0.606624 13:0.236948 14:0.713377 15:0.568518 16:0.671676 17:0.626463 18:0.574208 19:0.261454 20:0.29227 21:0.267799 22:0.681337 23:0.497683 24:0.750279 25:0.620735 26:0.601026 27:0.544028 28:0.479944 29:0.365768 30:0.583721 31:0.400464 
128 1:0.440263 2:0.644118 3:0.570442 4:0.593936 5:0.496959 6:0.461286 7:0.674787 8:0.399511 9:0.535461 10:0.6523 11:0.47283 12:0.581148 13:0.324992 14:0.702089 15:0.551155 16:0.700464 17:0.671306 18:0.58866 19:0.282224 20:0.354783 21:0.305129 22:0.701457 23:0.419907 24:0.571451 25:0.585955 26:0.577614 27:0.50886 28:0.48649 29:0.420283 30:0.561382 31:0.440862 
128 1:0.428034 2:0.400974 3:0.537194 4:0.573327 5:0.529924 6:0.492659 7:0.565165 8:0.413779 9:0.628251 10:0.551624 11:0.462668 12:0.533194 13:0.330759 14:0.613635 15:0.508681 16:0.658551 17:0.663642 18:0.558088 19:0.476481 20:0.416377 21:0.337762 22:0.636907 23:0.411243 24:0.554723 25:0.506203 26:0.455741 27:0.377655 28:0.451393 29:0.459567 30:0.519495 31:0.590409 
128 1:0.61085 2:0.453387 3:0.554522 4:0.618877 5:0.396412 6:0.33221 7:0.685227 8:0.321035 9:0.65721 10:0.728723 11:0.545801 12:0.608122 13:0.222119 14:0.720108 15:0.560052 16:0.682557 17:0.676759 18:0.549194 19:0.334759 20:0.30058 21:0.20415 22:0.751057 23:0.373665 24:0.668632 25:0.651086 26:0.586273 27:0.623022 28:0.516713 29:0.371691 30:0.59396 31:0.420139 
128 1:0.291 2:0.383782 3:0.549451 4:0.570191 5:0.481606 6:0.422743 7:0.677397 8:0.416837 9:0.682329 10:0.669862 11:0.478899 12:0.519706 13:0.321182 14:0.629397 15:0.515138 16:0.589998 17:0.596911 18:0.640912 19:0.530238 20:0.402319 21:0.322736 22:0.666841 23:0.277151 24:0.549546 25:0.502215 26:0.594451 27:0.442581 28:0.460585 29:0.460292 30:0.504913 31:0.501534 
128 1:0.496394 2:0.488744 3:0.544097 4:0.570789 5:0.495454 6:0.466664 7:0.606925 8:0.337342 9:0.600177 10:0.594275 11:0.470007 12:0.570658 13:0.318196 14:0.662275 15:0.542259 16:0.662406 17:0.638322 18:0.57532 19:0.297495 20:0.353913 21:0.336959 22:0.64756 23:0.491437 24:0.684164 25:0.548294 26:0.561417 27:0.507507 28:0.460306 29:0.411338 30:0.540904 31:0.476173 
128 1:0.415177 2:0.510549 3:0.557622 4:0.60006 5:0.495153 6:0.433499 7:0.731338 8:0.451488 9:0.593381 10:0.654294 11:0.469584 12:0.558669 13:0.388837 14:0.605632 15:0.496772 16:0.646841 17:0.654337 18:0.710951 19:0.39829 20:0.422802 21:0.409572 22:0.634147 23:0.367218 24:0.54397 25:0.597918 26:0.637428 27:0.492358 28:0.444429 29:0.443974 30:0.453821 31:0.419092 
128 1:0.439323 2:0.546332 3:0.513948 4:0.575567 5:0.401755 6:0.378821 7:0.679137 8:0.305748 9:0.551714 10:0.609842 11:0.499506 12:0.603626 13:0.24776 14:0.732504 15:0.549003 16:0.743596 17:0.724233 18:0.581434 19:0.273671 20:0.292898 21:0.275813 22:0.728178 23:0.373766 24:0.698502 25:0.63292 26:0.595895 27:0.617746 28:0.514345 29:0.375801 30:0.608025 31:0.42762 
128 1:0.396362 2:0.577994 3:0.542266 4:0.587963 5:0.477618 6:0.437981 7:0.635636 8:0.415817 9:0.569444 10:0.610936 11:0.468313 12:0.576652 13:0.387602 14:0.573082 15:0.529057 16:0.645963 17:0.633365 18:0.627015 19:0.328039 20:0.465604 21:0.408341 22:0.589018 23:0.494761 24:0.592958 25:0.595924 26:0.614657 27:0.508184 28:0.416992 29:0.436843 30:0.484538 31:0.455899 
128 1:0.390718 2:0.381128 3:0.577346 4:0.58632 5:0.543997 6:0.507001 7:0.642596 8:0.41276 9:0.598995 10:0.527823 11:0.469866 12:0.546681 13:0.341777 14:0.683208 15:0.525039 16:0.693145 17:0.676988 18:0.59811 19:0.344533 20:0.325845 21:0.346967 22:0.678647 23:0.401672 24:0.603314 25:0.503545 26:0.524054 27:0.350331 28:0.481337 29:0.436359 30:0.519599 31:0.494651 
128 1:0.479461 2:0.613337 3:0.572697 4:0.554659 5:0.551147 6:0.515964 7:0.610406 8:0.433143 9:0.521572 10:0.691026 11:0.460692 12:0.596134 13:0.419524 14:0.586381 15:0.5193 16:0.579995 17:0.531439 18:0.625903 19:0.228467 20:0.461498 21:0.39856 22:0.570051 23:0.50816 24:0.628405 25:0.530572 26:0.601828 27:0.580279 28:0.398329 29:0.45437 30:0.465198 31:0.464652 
128 1:0.438695 2:0.434196 3:0.467878 4:0.566607 5:0.405669 6:0.39137 7:0.623456 8:0.316959 9:0.664303 10:0.741975 11:0.482004 12:0.5257 13:0.257955 14:0.658458 15:0.539963 16:0.743742 17:0.769075 18:0.527515 19:0.610874 20:0.375266 21:0.308473 22:0.69 23:0.379609 24:0.627609 25:0.588613 26:0.472258 27:0.538482 28:0.494986 29:0.382207 30:0.598924 31:0.448567 
128 1:0.413296 2:0.51231 3:0.523105 4:0.574671 5:0.454588 6:0.414675 7:0.615626 8:0.362821 9:0.529551 10:0.685172 11:0.511644 12:0.569159 13:0.306972 14:0.645938 15:0.51356 16:0.610198 17:0.601068 18:0.483046 19:0.353085 20:0.406135 21:0.264066 22:0.670684 23:0.387367 24:0.568663 25:0.574435 26:0.516838 27:0.596916 28:0.462813 29:0.433337 30:0.57069 31:0.474153 
128 1:0.507055 2:0.360896 3:0.531276 4:0.623954 5:0.334548 6:0.275739 7:0.762659 8:0.245618 9:0.681738 10:0.64413 11:0.517431 12:0.582647 13:0.191535 14:0.773878 15:0.59119 16:0.778434 17:0.774185 18:0.644803 19:0.379963 20:0.218116 21:0.241668 22:0.783646 23:0.301229 24:0.718018 25:0.67479 26:0.666453 27:0.483701 28:0.551532 29:0.342923 30:0.604406 31:0.333882 
103.5026033949085 1:0.320759 2:0.548106 3:0.477177 4:0.541368 5:0.155797 6:0.151494 7:0.585001 8:0.374949 9:0.575325 10:0.319845 11:0.515173 12:0.533044 13:0.20069 14:0.796577 15:0.526044 16:0.790437 17:0.833975 18:0.690328 19:0.418998 20:0.230531 21:0.27865 22:0.873974 23:0.408926 24:0.285845 25:0.652944 26:0.600705 27:0.424591 28:0.538022 29:0.422096 30:0.678974 31:0.491359 
128 1:0.339918 2:0.603161 3:0.540434 4:0.543608 5:0.534138 6:0.493555 7:0.609535 8:0.440277 9:0.461288 10:0.562625 11:0.459421 12:0.527199 13:0.422614 14:0.509543 15:0.455876 16:0.503977 17:0.491134 18:0.586993 19:0.39157 20:0.534879 21:0.437911 22:0.513361 23:0.477836 24:0.532022 25:0.501551 26:0.533034 27:0.567564 28:0.360446 29:0.476611 30:0.458476 31:0.478193 
128 1:0.366886 2:0.351641 3:0.514511 4:0.591696 5:0.436676 6:0.362686 7:0.718288 8:0.417856 9:0.628842 10:0.594918 11:0.502329 12:0.518208 13:0.340027 14:0.650371 15:0.470943 16:0.672506 17:0.724499 18:0.591996 19:0.475871 20:0.354106 21:0.358876 22:0.721855 23:0.228995 24:0.551936 25:0.559371 26:0.616741 27:0.464494 28:0.505153 29:0.431645 30:0.492709 31:0.479315 
128 1:0.486673 2:0.339184 3:0.537194 4:0.632019 5:0.355846 6:0.293666 7:0.714808 8:0.332246 9:0.652187 10:0.646639 11:0.513762 12:0.5257 13:0.206982 14:0.751755 15:0.536375 16:0.770773 17:0.817197 18:0.525848 19:0.380574 20:0.262995 21:0.230776 22:0.822558 23:0.246726 24:0.608889 25:0.640009 26:0.591725 27:0.417287 28:0.572562 29:0.380757 30:0.603372 31:0.469814 
96.68226955253917 1:0.301976 2:0.529221 3:0.547619 4:0.598716 5:0.432537 6:0.389577 7:0.634766 8:0.370974 9:0.476064 10:0.493213 11:0.489767 12:0.5257 13:0.283802 14:0.661782 15:0.515999 16:0.713296 17:0.715615 18:0.585325 19:0.488699 20:0.38343 21:0.303576 22:0.699291 23:0.282793 24:0.538394 25:0.54342 26:0.510904 27:0.355066 28:0.488022 29:0.429953 30:0.584549 31:0.498691 
128 1:0.667921 2:0.419299 3:0.487039 4:0.637694 5:0.32228 6:0.258708 7:0.743518 8:0.183449 9:0.784574 10:0.692184 11:0.568243 12:0.650082 13:0.103491 14:0.846694 15:0.599943 16:0.819468 17:0.806101 18:0.639244 19:0.448381 20:0.127923 21:0.191319 22:0.840546 23:0.297602 24:0.83113 25:0.722419 26:0.633098 27:0.684161 28:0.591922 29:0.278134 30:0.669149 31:0.302985 
128 1:0.349326 2:0.322112 3:0.482812 4:0.504331 5:0.551674 6:0.552715 7:0.479903 8:0.429067 9:0.513593 10:0.528401 11:0.432181 12:0.450772 13:0.373185 14:0.56869 15:0.410676 16:0.595901 17:0.640114 18:0.259589 19:0.450825 20:0.418261 21:0.469594 22:0.578889 23:0.490631 24:0.580612 25:0.41759 26:0.314785 27:0.405248 28:0.429526 29:0.437689 30:0.507602 31:0.652054 
128 1:0.495767 2:0.544052 3:0.550437 4:0.608124 5:0.513141 6:0.455012 7:0.681747 8:0.383204 9:0.675236 10:0.712062 11:0.476641 12:0.582647 13:0.327258 14:0.656282 15:0.537667 16:0.650598 17:0.636949 18:0.727626 19:0.463042 20:0.382802 21:0.333547 22:0.666282 23:0.385049 24:0.590171 25:0.590829 26:0.606478 27:0.519681 28:0.463092 29:0.432008 30:0.509567 31:0.430388 
8.80811174910156 1:0.272907 2:0.509749 3:0.477177 4:0.542861 5:0.211444 6:0.200382 7:0.497825 8:0.50479 9:0.622429 10:0.334062 11:0.566408 12:0.541136 13:0.334806 14:0.634856 15:0.514564 16:0.673042 17:0.746425 18:0.620511 19:0.736286 20:0.410483 21:0.440306 22:0.741067 23:0.500907 24:0.187231 25:0.518593 26:0.544259 27:0.441363 28:0.493593 29:0.532092 30:0.61299 31:0.628713 
82.32075751561089 1:0.231734 2:0.803388 3:0.530572 4:0.557497 5:0.441944 6:0.411986 7:0.673917 8:0.475948 9:0.283392 10:0.503699 11:0.445589 12:0.512213 13:0.422408 14:0.56594 15:0.475104 16:0.685875 17:0.69674 18:0.403557 19:0.453268 20:0.481546 21:0.486546 22:0.587446 23:0.438444 24:0.406564 25:0.57377 26:0.487652 27:0.434735 28:0.418942 29:0.414843 30:0.512566 31:0.43585 
128 1:0.666353 2:0.608402 3:0.532967 4:0.591696 5:0.4652 6:0.409297 7:0.624326 8:0.275173 9:0.724882 10:0.726986 11:0.503599 12:0.701034 13:0.27752 14:0.687477 15:0.638542 16:0.659624 17:0.560801 18:0.648138 19:0.345754 20:0.341498 21:0.273886 22:0.625694 23:0.555208 24:0.734348 25:0.649092 26:0.635182 27:0.634655 28:0.435794 29:0.370724 30:0.551453 31:0.371662 
35.53501357460423 1:0.278144 2:0.64804 3:0.561003 4:0.586619 5:0.481606 6:0.459493 7:0.760049 8:0.329189 9:0.620863 10:0.541267 11:0.435568 12:0.546681 13:0.296468 14:0.688134 15:0.57067 16:0.664748 17:0.632031 18:0.624236 19:0.540623 20:0.322222 21:0.373085 22:0.635579 23:0.555813 24:0.568663 25:0.585733 26:0.595734 27:0.422562 28:0.452646 29:0.371449 30:0.565622 31:0.35064 
128 1:0.464409 2:0.500134 3:0.581009 4:0.569743 5:0.527816 6:0.492659 7:0.621716 8:0.393396 9:0.574764 10:0.654487 11:0.489908 12:0.585643 13:0.355267 14:0.622542 15:0.53164 16:0.576238 17:0.539943 18:0.585881 19:0.263897 20:0.418841 21:0.294384 22:0.618953 23:0.508463 24:0.621236 25:0.534116 26:0.566709 27:0.565535 28:0.428134 29:0.447963 30:0.518151 31:0.48111 
40.17057915286954 1:0.349702 2:0.625634 3:0.546633 4:0.587814 5:0.234391 6:0.244832 7:0.578563 8:0.511822 9:0.461643 10:0.415568 11:0.595907 12:0.599431 13:0.354979 14:0.655707 15:0.570383 16:0.729154 17:0.77552 18:0.475931 19:0.44606 20:0.434106 21:0.39084 22:0.737923 23:0.623312 24:0.283575 25:0.573886 26:0.56719 27:0.553226 28:0.53468 29:0.529675 30:0.665012 31:0.594748 
27.01810021857791 1:0.315146 2:0.450587 3:0.534799 4:0.568996 5:0.486574 6:0.465768 7:0.552984 8:0.349572 9:0.471927 10:0.486652 11:0.462385 12:0.512213 13:0.278962 14:0.645118 15:0.475535 16:0.622152 17:0.619561 18:0.503613 19:0.359805 20:0.387681 21:0.321559 22:0.65252 23:0.367117 24:0.590967 25:0.505981 26:0.45526 27:0.38577 28:0.460724 29:0.45026 30:0.577826 31:0.583302 
7.467056333536765 1:0.553779 2:0.479621 3:0.570301 4:0.567951 5:0.541137 6:0.494452 7:0.662606 8:0.41276 9:0.742612 10:0.803216 11:0.483275 12:0.603626 13:0.366904 14:0.640438 15:0.575405 16:0.625177 17:0.590048 18:0.680934 19:0.374466 20:0.393816 21:0.319164 22:0.636976 23:0.47834 24:0.652302 25:0.544085 26:0.615619 27:0.607467 28:0.443454 29:0.432612 30:0.484642 31:0.429865 
